solver_type L2R_L1LOSS_SVC_DUAL
nr_class 2
label 1 -1
nr_feature 24950
bias -1
w
1.060668119225564 
1.061968213943151 
1.060514719406123 
1.059865338307562 
1.059375698602223 
1.05998090631815 
-2.649210962603579 
-2.937041141643503 
-2.795401797172162 
0 
-2.915550596265373 
-2 
-0.5 
0 
-0.03277753831547303 
-0.03247356645205323 
-0.0324709268366762 
-0.03276492920933117 
-0.03223627209817036 
-0.031279013570116 
-0.03408827170724258 
-0.03428513626092768 
-0.03189027878191453 
-0.03295553515643276 
-0.03057668253062008 
-0.03196996279861855 
-0.03225052535857392 
-0.02924208084494506 
-0.01127013714668668 
-0.03378756249157767 
-0.03090436122416906 
-0.0331805828526903 
-0.03249713151770974 
-0.03329447084871354 
-0.03322546669083889 
-0.03267317663523898 
-0.032289633060283 
-0.033747586304386 
-0.03264863140316173 
-0.0324180928014051 
-0.03297832990876734 
-0.03176854068752178 
-0.03281894264698241 
-0.03302312704640561 
-0.03328761879819165 
-0.03318307415538032 
-0.03263208170623737 
-0.03253388903655306 
-0.03103692555888088 
-0.030786747074862 
-0.03356243405558431 
-0.03319646820132222 
-0.02903101338283614 
-0.03225222280199116 
-0.03384977854753009 
-0.03001527502163311 
-0.03347356859966617 
-0.03057805457673337 
-0.0326630415523143 
-0.03251288538866633 
-0.03268483894336524 
-0.03289401522372132 
-0.03347710675289306 
-0.03340871965754581 
-0.0324426114590547 
-0.03314454007479 
-0.03239824021937149 
-0.03227246709381108 
-0.032708307284868 
-0.03205020037190658 
-0.03350300751057676 
-0.03283713651550579 
0 
-5.551115123125783e-17 
-0.03189932596195363 
-0.03351716136486102 
-0.03240100559648802 
-0.03350925018870037 
-0.03263376400523611 
-0.03345360071475588 
-0.0210114236105688 
-0.03266153224440121 
-0.03262524187957518 
-0.032543097185598 
-0.03307628021462158 
-0.03330170022775244 
-0.02814435618698025 
-0.03172363660972801 
-0.03193848097833549 
-0.03174798033032769 
-0.03040202055890534 
-0.03636611620520732 
-0.03317300463045544 
-0.0321959485558744 
-0.03301694266323583 
-0.03132630145488607 
-0.03500403295231186 
-0.02913103407606071 
-0.03293490554775413 
-0.03360717107043228 
-0.03287494938265548 
-0.03340521893446259 
-0.0293819827463412 
-0.03335971080170469 
-0.03307282380506009 
-0.03310558062196254 
-0.03316142051461223 
-0.03264848444894216 
-0.0330236139197033 
-0.03025147386837358 
-0.03284732570668093 
-0.03180119093825516 
-0.03073647739102139 
-0.02861400068241778 
0.5000000000000002 
-0.03277472572830168 
-0.03041457741567911 
-0.03237105738939653 
-0.03227662399172173 
-0.03327624357417603 
-0.03091934614891738 
-0.03271831978723678 
-0.03134301539829824 
-0.03321657677289854 
-0.03006057758836269 
-0.0300181763109381 
-0.03290554357161062 
-0.03260612584645498 
-0.03466436349367616 
0 
0 
-0.0326817716555315 
-0.03087435549018087 
-0.0330693299680162 
-0.03241056370682627 
-0.03198184279352578 
-0.03252263179194956 
0 
-0.03238084045390707 
-0.0348519114649328 
-0.02901803215886059 
-0.03298282575113791 
-0.03118497904840263 
-8.326672684688674e-17 
-0.03325122130266358 
-0.0320427861533204 
-0.03281914301151229 
-0.02944135536351767 
-0.03320931038753513 
-0.03033383873967815 
0 
-0.03281529275858363 
-0.03299932530776994 
-0.03279897735105376 
-0.03291274634682149 
-0.03481184342597798 
-0.03585984067354946 
-0.03276625703435616 
-0.03244545848188641 
-0.03220163208248418 
-0.03433847360044445 
-0.03284655179430321 
-0.03140687383613504 
-0.1092045494002733 
-0.03451016978104887 
-0.03187765190447255 
-0.03261282261079589 
-0.03168061447138688 
-0.03245638455483858 
-0.03424683011641698 
-0.03303889081537498 
-0.0354586336569913 
-0.03245041926893503 
-0.03307777267567116 
-0.02989833625938108 
-0.03323020813622198 
-0.2008477692682565 
-0.03333240393252063 
-0.03401454382616363 
-0.03183904101017446 
-0.03186507502337703 
-0.03297113281017947 
0.02109973289791739 
-0.02952226196495369 
0.5 
-0.03432798400052862 
-0.03246679556644229 
-0.03315905326502397 
-0.03438004521961809 
0 
-0.02236777321984601 
-0.03503339729593389 
-0.03434110920020773 
-0.03279406310942957 
-0.03001229253414654 
-0.03003816308857577 
0.7091486284552453 
-0.03313642970760141 
-0.03131835466610753 
-0.03254667124385686 
-0.0328186467543763 
-0.03226142518496099 
-0.0338555780629388 
-0.03315779549411463 
-0.03214103462665901 
-0.03175029899429818 
-0.03260506656583286 
-0.03221359610591423 
-0.03221111767243089 
-0.03139278876736975 
-0.03325848624452181 
-0.03399669029067486 
-0.03310587954375575 
-0.03281455872077697 
-0.03300574686649622 
-0.02898766571162945 
-0.03292479581829019 
-0.03320380116170726 
0.005547490677176071 
-0.03525303003388289 
-0.0331051216228596 
-0.03334299785638908 
-0.03187432345801739 
-0.03395252513877981 
-0.03351734783137666 
-0.03259595351127467 
-0.03140009771420474 
-0.03232028651429212 
-0.03238909393366095 
-0.02271078394197015 
-0.03647308442082427 
-0.02980800429681176 
0.4920688075409968 
-0.03478119934821937 
-4.163336342344337e-17 
-0.05818996102614404 
-0.03043757348116765 
0 
-0.03355479428442044 
1 
-0.03398617299422059 
-0.02848064945702676 
-0.03514035680632022 
-0.03352920237783191 
-0.03362712156820029 
0.05001941717456462 
0.9789034004130321 
1.138384636597855 
-0.03353129047395648 
-0.03488038977087871 
-0.03251280619098658 
-0.03147011430803895 
-0.03323154004465577 
0.09261282507483384 
-0.03361131504883486 
-0.03316006239228258 
-0.03254833141136663 
-0.0330688463682141 
-0.034828428808547 
-0.03299605076730838 
-0.03383889223222723 
0 
-0.03140250998943991 
-0.03220247431263322 
0 
-0.02626316253315639 
-0.03290172259888338 
-0.03022804748415558 
-0.02892595972218575 
-0.02796024522124995 
-0.03207384918565222 
-0.03333922380490241 
-0.03256300409200032 
-0.03284527091672506 
0.5665969558872426 
-0.03301829657771556 
0.5000000000000001 
0 
-0.03041286550439321 
-0.03190427015401325 
-0.03281500417593582 
-0.03470954013688959 
-0.03006316021712585 
1.040834085586084e-17 
-0.0309934806294882 
-0.03153405749419439 
-0.0318388245320986 
-0.0326959293599323 
-0.03272496294780974 
-0.03082301719683907 
-0.0330425349003316 
-0.03271356073779903 
-0.03292804492674122 
-0.0335578179194463 
-0.03404365050155535 
-0.0330621241063233 
-0.03359148913659778 
-0.03208878658913933 
-0.03506042085278475 
-0.02892897056927959 
-0.03160988947600882 
-0.03162921930497347 
-0.0333050421486201 
-0.03396480980321911 
-0.03370722476126297 
-0.03439053212147667 
-0.03415127616140588 
-0.03112521001959109 
-0.03118871187921754 
-0.03319962007692183 
-0.03344636624838255 
-0.0341520023760699 
-0.03058462535022125 
-0.03306381789530694 
-0.03219875065649257 
-0.02824318680841855 
-0.03348808515533283 
-0.03258911485457026 
-0.03277249418677901 
-0.03314182489440833 
-0.03176767932662013 
-0.03335238533185428 
-0.03443663174838398 
1.530202358373407 
-0.03118369691585066 
-0.03312439751250209 
-0.03259272066320108 
-0.01841584600834291 
-0.03276246126293093 
-0.03222521210890156 
-0.0330931831147144 
-0.03351644934548387 
-0.03223039228638523 
-0.03295524122370417 
-0.03198050370015868 
-0.0242335229971429 
-0.03250938513526969 
0.5 
-0.02988599499793527 
-0.03515742577651343 
0.5535766438340103 
-0.03090767427452903 
-0.0299761643050944 
-0.03286951731805416 
-0.03223040416915654 
-0.03397976266934373 
0 
-0.0329820888057834 
0.3657371219179422 
-0.03419496438618587 
-0.0326343414025258 
-0.03267522539435615 
-0.03203380522910707 
-0.03279354621444889 
-0.03341586471734987 
-0.03305104674175073 
-0.03322634330901904 
-0.03111992355921169 
-0.03463586690956244 
-0.03266066672502305 
-0.03163080187179999 
-0.03256427621235011 
-0.03088999461498677 
-0.0327210484457818 
-0.03340366783436005 
-0.03522447566947209 
-0.03047634157608592 
-0.03190506605753655 
-0.03393849424784763 
-0.03275389102294127 
-0.03231573435250305 
-0.03612521813045905 
-0.03364980329333693 
-0.03333805050958779 
-0.03195407505482465 
-0.03287365511767847 
-0.03124717766132482 
-0.0321158480943376 
-0.02827554669166203 
-0.02984724609597126 
-0.02957633765123667 
-0.03313931764008113 
-0.03295044286721169 
-0.03105891047293841 
-0.0312892228431641 
-0.0322970192974159 
-0.03203633360341827 
-0.03071627344465022 
-0.03166226792967317 
-0.03372561575543339 
-0.02911439045352525 
-0.03308429453193538 
-0.03344690987895114 
-0.0320218028876337 
-0.03398102698438179 
-0.0297466460816997 
-0.03231902630879487 
-0.03475064746950621 
-0.03309726250985195 
-0.03153613326525317 
-0.01308209168697458 
-0.03407943207242727 
-0.03244740352206993 
-0.03298349321184037 
-0.03347794191712972 
2.775557561562891e-17 
-0.03358511013588003 
-0.03392525973706754 
-0.03269436975097956 
-0.03312070640427786 
-0.03318670846373566 
-0.03371207084874698 
-0.06770984986676032 
-0.03319076640557905 
0 
-0.03120924853359491 
-0.03069079113217216 
-0.02467418149581728 
-0.02580703975998342 
-0.03274801395309886 
0.7444278960746264 
0.5 
-0.03308733465728765 
-0.03217436875394191 
-0.03135109356180656 
-0.03197880182728722 
0.3961171897161727 
-0.0310000473383155 
-0.03322344694180466 
-0.03165967810051645 
-0.03301936222922472 
0 
0 
-0.03075393929979291 
-0.03317181754242072 
-0.03372184773144187 
-0.02918067692422826 
1 
0.6104931887633585 
-0.05349614528566604 
0.108257258520402 
-0.03298198794339491 
-0.0333216512953137 
-0.03363427356020361 
-0.02771895699266978 
-0.03186630631577701 
0.3567555516610341 
-0.03238642833840669 
-0.03266498134196168 
0.2319923027473297 
-0.03565214491009014 
0 
-0.02693605972764282 
-0.03307050346091157 
-0.03495856983887227 
0 
-0.03213558526510987 
-0.03286721030061959 
-0.03562902355392585 
-0.03237544818579659 
-0.03850148690599947 
-0.03262438196469614 
-0.03282078908116298 
-0.03270751093580478 
-0.03280843246508432 
-0.0304607288720618 
0 
-0.03326932491538551 
-0.03328144380885554 
-0.03248082891105502 
-0.0332120959233017 
-0.0323731446105323 
-0.01906027432431698 
-0.03121291791190559 
-0.0239708464414886 
-0.03304012953115166 
-0.03060602568445287 
-0.03292373191859288 
-0.03204561599928447 
-0.0331713801382168 
-0.03270871091936724 
-0.03304687492551163 
-0.0307833739664879 
-0.03117495106275313 
-0.03304410812056369 
-0.0332107978209631 
0.5000000000000002 
-0.02953676190742936 
0.166927993569529 
-0.009134360606035341 
-0.02846087951434943 
-0.03246141005240213 
0.4999999999999997 
-0.03030885664980692 
-0.03200925022431099 
-0.03375796349143906 
-0.03297225579071508 
-0.03166430325195146 
-0.03221855291653431 
-0.03149955494642984 
-0.03089319982265429 
-0.03211495832929746 
-0.03094871033370701 
-0.03178289734844363 
-0.0349103280532576 
-0.03248298834809525 
-0.03098808977575273 
-0.02856126258131951 
-0.03291556070374633 
-0.0322088464120655 
-0.03322102483102649 
-0.03216953539306525 
-0.03308920332239986 
-0.03277429765001186 
-0.02863907775138347 
-0.03127820630893921 
-0.0336415725547307 
-0.03293927120232273 
-0.03262933256743208 
-0.03236248832780399 
-0.03429468738608223 
-0.03340805442525198 
1.387778780781446e-17 
-0.03328451312407257 
-0.03222800021311262 
-0.03109812597797942 
-0.03404372480460528 
-5.551115123125783e-17 
-0.03370755245468873 
-0.03078862141565291 
-0.0326611973594827 
-0.03279760388454183 
-0.03126843376101016 
-0.03453732887552841 
0.8240948470544307 
-0.03300602724953872 
-0.0329317765764601 
-0.03233678431719542 
-0.03392592444141646 
-0.03187029233390055 
-0.03457995205603102 
-0.03080219818162885 
-0.03308738150840985 
-0.03266375151881699 
-0.0328905472248933 
-0.03313939761257695 
-0.03315137363127887 
0.4999999999999999 
-0.01974447690633038 
-0.03310845662482945 
-0.03112749928400477 
-0.03316755292949563 
-0.03649506179562068 
-0.02965583448559762 
-0.03515038426278141 
-0.03141596693189953 
-0.03314891980780083 
-0.02995934649315007 
-0.03348547484587423 
-0.03130792872509158 
0.6152725522687663 
-0.03345804289728202 
-0.03409345731295452 
-0.02881635759495174 
0 
0 
-0.03229287099861583 
-0.03411773369198207 
-0.03240151838301838 
-0.03352868237655096 
-0.03262820874677255 
-0.03411756854796295 
-0.03251781783445433 
-0.03507069254903325 
-0.03065604503929308 
-0.03625909445633808 
-0.3384328093645033 
-0.03194566837427269 
-0.03308830066156518 
-0.03281015551300646 
-0.1351935419541759 
-0.0322985328604835 
-0.03297576548558329 
-0.03379776915405012 
-0.03148430294818239 
-0.03170399100004953 
0.1027070955221325 
-0.03126768464821714 
-0.03304227752390292 
-0.03433906716472446 
-0.03335087854739136 
-0.03488819984223827 
-0.0344261745402409 
0.5 
-0.03355364751997115 
-0.03450475535765137 
-0.03228700466083226 
-0.03178439481055299 
-0.02941327803806351 
-0.03282357065814095 
-0.03392297798921628 
-0.0329140167006964 
-0.02953141621214796 
-0.034093328562068 
-0.03358574659844869 
-0.03218915321495308 
-0.03110306845748539 
-0.02964226103307582 
-0.020804945950083 
-0.03404849884925781 
0.1812412337598544 
-0.03302017235484205 
0.1133582158938992 
-0.03414041350979213 
-0.03377068042746384 
2.775557561562891e-17 
-0.03471849014592424 
-0.03326960974766043 
-0.03220915383581671 
-0.09716177544277659 
-0.03196401596075526 
-0.1085903362031444 
0 
1.225391717106456 
0.1113219703413585 
0 
-0.03166464812406245 
0.5920231273508749 
-0.03638919974671743 
-0.03312095862087243 
-0.03217272034881186 
-0.03266244011135827 
-0.03260682975529084 
2.775557561562891e-17 
-0.03424361168105113 
-0.03416998690009534 
-0.03371543902909754 
-0.03451821917246399 
-0.03323889025873147 
-0.025432426758063 
0.3666382876097151 
-0.03392682161849205 
-0.03266617271999113 
-0.03339706872161096 
-0.03179384312566641 
-0.03468387928301693 
-0.03121924653910383 
-0.0314790773655942 
-0.03787844703070139 
-0.03456141043775474 
0.0216080513657581 
0.02747899002937844 
0 
2.775557561562891e-17 
0 
-0.03267159448280167 
-0.03401605241271674 
-0.03263087647831367 
-0.03084012530870935 
-0.02530764723488153 
0 
-0.03292122261411082 
-0.03719326450303567 
-0.03617154872736048 
-0.02848041089640073 
-0.03338507915702173 
-0.0309104375088799 
-0.03191960237225866 
-0.03296565585568802 
-0.03217307387178373 
-0.03372257013318637 
-0.0339094999455409 
-0.03460406355700157 
-0.01807453163037347 
-0.03083569019836686 
-0.03308973544119821 
-0.03242078562199806 
-0.03484822172164531 
-0.03409843615859098 
-0.03463091242628384 
-0.0359833275894953 
-0.0345472289337141 
0.7513683015376056 
0.06713616327486902 
-0.03198132406388064 
-0.03306717498210165 
-0.0319006523007099 
-0.03407910197050735 
-0.03163958186388556 
-0.03119960370930649 
-0.03125397804022901 
-0.02816790526072962 
-0.03261486191669388 
0.02559659988930671 
-0.03330971622541338 
-0.03313059810468343 
-0.02973667529710526 
-0.03082727345527522 
5.551115123125783e-17 
-0.03344724617592309 
1.227074971406115 
-0.03136329527145167 
-0.03128696178560179 
4.336808689942018e-18 
-0.03319787839193927 
-0.03289023208783843 
-0.03331595844452105 
-0.0332791625411152 
-0.03332528282672302 
-0.03198489269915994 
-0.03223417527219517 
-0.0333801801570817 
-0.03139325476975951 
-0.1118637725673747 
-0.03366734117704655 
-0.03425136585065681 
-0.03292921824851066 
-0.0343180395419604 
-0.02951914008209768 
-0.03338175756173871 
-0.03350440634534733 
-0.03094565644623125 
-0.03380651119533571 
-0.03135642814609285 
-0.03056822558025757 
-0.0311345181566433 
-0.01710207377250516 
-0.03276666028180342 
-0.03205085514731516 
0.5000000000000001 
-0.03227544981300212 
-0.0324562909983848 
-0.03277208592609251 
-0.03290955034303594 
-0.03253417875907012 
-0.031789081245655 
0.9003555417009597 
-0.0329024804370052 
-0.03688451762864732 
-6.938893903907228e-18 
-0.03326158646379118 
-0.03351006087138202 
-0.02945385324802582 
-0.03157737430708214 
-0.03402501746807967 
-0.03246029198404723 
-0.03374189995308022 
-0.02982819583037551 
-0.033567494693978 
-0.03543444458791933 
-0.03255186765452254 
0.1340096529930762 
0 
-0.03361386219973623 
-0.03350621798355376 
-0.03281290612402289 
-0.03309638585930059 
-0.02654443782389901 
-0.0337570350777959 
-0.03428625923673918 
-0.0321971988779823 
-0.03446201166777712 
-0.03509671514672744 
0.7085769898982116 
0.365760697272381 
-0.03282577977405207 
-0.02250745491638798 
-0.03343138554944981 
-0.03309670553587162 
-0.03258545287505057 
0.1551786764953758 
-0.5 
-0.02968436643968068 
-0.03253173265053252 
-0.03048973524613652 
-0.02975317905289471 
0.9339552043978299 
-0.031014334332517 
-0.03306063304369579 
1.387778780781446e-17 
-0.03412662920262084 
-0.03225057482619439 
-0.03356491871811995 
-0.0318117995549166 
0.02287191927014531 
-0.03361870412395716 
-0.0280351427786491 
-0.02978892836675062 
-0.03033102794082932 
-0.03277939354643635 
-0.03304878794253632 
-0.03226690923523681 
-0.01401731485249964 
-0.03215079496699828 
-0.03366030226735077 
-0.03259907563373939 
-0.03442883110384193 
-0.03153682411885111 
-0.03186624673125535 
-0.03714069425338229 
-1.561251128379126e-17 
-0.03271584411957639 
-0.0291946577609372 
-0.2301772193401232 
-0.03242595162483568 
-0.03223113466325746 
-0.03461184784883946 
-0.03598245331158484 
-0.03499382459126765 
-0.03279129216312124 
-0.03393367440061017 
-0.02103435328038015 
-0.03302708646088753 
-0.02990351475864643 
-0.03313030892555911 
-0.03247679374477029 
0.3303876951321394 
0.1069896706604339 
-0.03301863971467715 
-0.03320275034612043 
-0.02626075725400435 
-0.03311173247020286 
0 
-0.03351365073021086 
-0.03652972336025095 
-0.0335161070038199 
-0.02920908194194741 
-0.02790488174919032 
-0.03014943378617434 
-0.03329047078922186 
-0.02667011703729066 
-0.02742154290041909 
-0.0344255426640437 
0.2177484977640169 
-0.03197568201332567 
-0.03289056552703555 
-0.03058154368267701 
-0.0302087635096878 
-0.2300513925157471 
-0.03236603526759575 
-0.03335704444299503 
-0.0321994010863008 
-0.03379198223153838 
-0.02968937264253808 
-0.03356111895708448 
-0.02934776948216203 
-0.03225606633677401 
-0.03276063288623389 
0 
-0.03008157625366042 
-0.03298269208217012 
-0.03379295490184086 
-0.03376586302251016 
-0.03338242801155966 
-0.03183769437445441 
-0.02848174893851394 
-0.03309470251966348 
-0.03269482091128759 
-0.03352866269650118 
-0.152252475133594 
0.3128825541971424 
-0.03217698284629458 
-0.02885349976474449 
-0.03293148710560226 
0.02784063994920636 
-0.03457976534967026 
-0.03344489585426186 
0.4701836878945944 
-0.03254643895178663 
-0.03415911423905516 
-0.03257115163989973 
-0.03194104428453871 
-0.0272423618844512 
-0.02163613684188619 
-0.03216820607144165 
-0.01314069955422116 
-6.505213034913027e-17 
1 
-0.03348010233606584 
-0.03380295612524482 
-0.03137485211545953 
-0.0677802737850208 
-0.03431875180476177 
-0.03388169997778297 
-0.03347937148015523 
-0.0327275928251018 
-0.03229136492255415 
-0.04144165973735714 
-0.04078927431019083 
-0.02093626151270829 
0 
-0.03281130672129859 
-0.0306268311833537 
-0.03061885200656853 
-0.0328185878043878 
-1.387778780781446e-17 
-0.03337973333439425 
-0.03078752685464241 
-0.0332037169189816 
0.2401785288879942 
-0.03170814661439358 
-0.03277561384491523 
-0.02894589379596219 
0 
-0.0336428794095034 
-0.2295810357389605 
-0.03073620603210367 
-0.03253528246670194 
-0.03339612272677053 
-0.01185785058285058 
-0.03268715819041224 
-0.03389210176697401 
-0.0322999569892864 
0.07612121204478946 
-0.03150686158767921 
0.651675062474499 
0.1756560459723002 
-0.03334831986818813 
-0.03280703897911277 
-0.03394369518068452 
2.775557561562891e-17 
6.938893903907228e-18 
-0.03005374990980123 
-0.03336987810297107 
-0.03483471170641779 
0 
-0.03221889479654173 
0.5 
-0.03306883888958037 
-0.03309721317946153 
-0.02100621643107857 
-0.03298568198115352 
-0.03346242069584874 
-0.03006177211668956 
-0.0320819145477163 
-0.03440865049319929 
-0.03105559759226205 
2.775557561562891e-17 
-0.03335217128450089 
-0.02615373139808543 
-0.035868923066232 
-0.03449858500667186 
-0.03197285980398802 
0.2312432671113064 
-0.03199370344157954 
-0.2236018846360547 
0 
-0.0325291703442341 
-0.03305741746585961 
-0.0338822671106618 
-0.03356015458014915 
0 
-0.03163323861314028 
-0.03357164767923217 
-0.03327278069909832 
-0.03153290678887322 
-0.03386162383684034 
-0.03412989317241958 
-0.03347678055064276 
-0.03130254483958175 
-0.03265812471477417 
-0.0330675952104356 
0.1822925965202115 
-0.03307330126107355 
-0.03101538777726603 
-0.03390622626771274 
-0.03172464546263856 
-0.0303842495917735 
-2.775557561562891e-17 
-0.03087884992380406 
0.0362790150273495 
-0.03342522235211187 
-0.03079386272729717 
-0.03212060437335067 
-0.03199549178287199 
-0.0328267921507974 
-0.03393920042370452 
-5.551115123125783e-17 
-0.03297479304726135 
-0.0330212154112832 
-0.03336775708323588 
-0.0329608839320699 
-0.02922471979122809 
-0.03426546163230083 
-0.5363891213066301 
-0.03316346677853337 
-0.0324537285370772 
-0.03125325490672871 
-0.02964748367512733 
0 
-0.03185536781783298 
-0.03251451265643165 
2.081668171172169e-17 
-0.03403322509271901 
-0.03261643326680255 
0 
-0.03326013085109381 
-0.03310768021789082 
-0.03079693498716166 
-0.03173257632379239 
-0.03335706519640533 
-0.03266721991927348 
-0.01431882751691014 
-0.04433667887619361 
-0.03153284784069846 
-0.01522934471613415 
-0.03267125027455888 
-0.03330597550209956 
-0.03321220354234969 
-0.03308941393958733 
-0.0397387711295514 
-0.03170508247936385 
0 
-0.03125606820553162 
-0.03306239516918491 
-0.02699941272625922 
-0.03302198429781904 
-0.03248150121785591 
-0.03351063631129572 
2.775557561562891e-17 
-0.03299056091106436 
-0.03145896020905272 
-0.03333631927619519 
1.226435439747358 
-0.03475745890556851 
-0.03312159220925864 
-0.03323217367552765 
-0.306024855236383 
-0.0325880736510076 
0 
-0.03477980259906016 
-0.03193861967749751 
-0.08551849335725814 
-0.03870103715925872 
1.374495513872598 
-0.03346918191006935 
-0.03439408683407404 
-0.03337907913793009 
-0.03331179081076503 
-0.03329049239957245 
-0.03059192544476185 
-0.03299879970053731 
-0.03308293161984436 
0 
-0.03277325694779789 
-0.04189229479302198 
-0.03329936860377778 
-0.03353373917224201 
-0.03364716136641061 
-0.03259673240253944 
-0.03246806791882533 
-0.05800469725087987 
-0.03290514381736473 
2.775557561562891e-17 
-0.0327711362124451 
-0.03324247695541483 
-0.03260413566542757 
-0.03267116214800059 
-0.03326258209637709 
-0.03380596385490085 
-0.03444657090367188 
-0.03182963056167839 
0.0602408521870919 
-0.02848092440917413 
-0.03243281967162932 
0 
-0.03418985002000251 
-0.03294919320216788 
-0.00528345344542 
5.421010862427522e-19 
-0.03422623795992592 
-0.03241522681049699 
0.0212891122671387 
0.1374467823045093 
-0.03322276828052392 
0.02004441240752633 
-0.03295620040241345 
-0.03347619090112225 
-0.03368044548381482 
-0.02660399680360913 
-0.03309935931470354 
-0.03243375256549569 
0 
-0.03265426112569648 
-0.03720906002723524 
-0.03383249089805816 
-0.03302349743800635 
-0.03378044467536222 
-0.03217481267504485 
-0.03536070035511849 
-0.03361071073017072 
-0.02774720999375493 
-0.03398479008797677 
-0.03084662848418769 
-0.02737118463917527 
-0.03365115581981908 
-0.03459505504921762 
-0.03373355207651416 
-0.03275415771701812 
-0.1878272286357493 
-0.0187284471257812 
-0.03215509333144438 
-0.006100065973655403 
-0.03084233174856742 
0.1513651955219734 
-0.03395839639845724 
-0.03291773508331859 
-0.03321470835505453 
-0.03216933595645672 
0 
-0.03379801004892498 
-0.03118286786465553 
-0.03245071846488673 
-0.03538856178916931 
-0.03342157919751611 
0.2069396172936568 
-0.03128189085974131 
-0.03447009786264568 
-0.03158768610859776 
-0.03569488391160622 
-0.03467470871462049 
-0.03127246267882455 
-6.245004513516506e-17 
-0.02818226533775357 
-0.03279226891859529 
-0.02310206326170891 
-0.03279833184557765 
-0.0350037846651271 
-0.02698924683108861 
-0.03450887177457592 
-0.03192019597462471 
0.1014775899050118 
0 
-0.03302460993373632 
-0.03358174568422991 
-0.03244680440704979 
-0.03085775435989501 
-0.02919536678187309 
-0.03341068266830973 
-0.03117571983606006 
-0.02958265593629983 
-0.03368148683937515 
-0.03392883992426652 
-0.03231926095749289 
-0.03196818980541669 
-0.03407266934364314 
-0.0001089337162308718 
-0.03222744934463122 
-0.03399370242490187 
-0.03162611362991215 
-0.0337569080346416 
-0.03299321285083424 
-0.03013976639073655 
0.06614220646234049 
-0.03307924822200906 
-0.03436466401431362 
-0.0339624192340359 
-0.03299551420681515 
-0.02800352836390904 
-0.03344689142078873 
0 
-0.03295639318651979 
-0.03435253150049136 
-0.03395726448507943 
-0.03408693421972892 
-0.03340098030102438 
-0.032988008368308 
-0.03454206899215578 
-0.03899674562455961 
-0.03769512176853999 
-0.03200754123444363 
-0.03184988248443783 
-0.03360415311370021 
-0.03050585162209513 
-2.775557561562891e-17 
-0.03278417106664318 
-0.02821348747024217 
-0.03405850734227518 
-0.03318266216038952 
0.5466465084337736 
-0.5 
-0.03454850836567315 
-0.0381591251729162 
0 
0.02076769803541113 
-0.0350079726296372 
-0.03051796804394782 
6.938893903907228e-18 
-0.03362951591412999 
0.002289060978873381 
-0.03299771038345878 
-0.03469777237699534 
-0.03352593515918677 
-0.03202179174111698 
-0.03224918383571958 
-0.03153204967207115 
0 
-0.03515211060933855 
0.1004302462265488 
-0.03368466007043508 
-5.551115123125783e-17 
0 
-0.03401168831136805 
-0.03425990650257775 
-0.03085614514608746 
-0.03349580211159731 
-0.03019979806483414 
-0.0313271356133903 
-0.03235128321405997 
0.03305281762963824 
-0.03312184818419682 
0.4666260412006151 
-0.03358724111424265 
-5.551115123125783e-17 
-0.03868065187971408 
0 
-0.03512491913468256 
0.02440427664518698 
0.5 
-0.03344341232905972 
-0.02886587874289231 
-0.02754069170982661 
-0.03105477039600862 
-0.03101257612623208 
-0.04314517634257634 
-0.03258629528655178 
-5.551115123125783e-17 
0 
2.775557561562891e-17 
-0.02989218394052739 
-0.03372073141076304 
-0.1949424528210267 
0 
0 
-0.033178811293021 
-0.03363981907582506 
-0.03341821267949606 
-0.03428919695018074 
-0.0326081105513476 
-0.004179332586830592 
-0.03092371350830508 
-0.03258532386896155 
0.02658707601547494 
-0.03314948494351237 
-0.03335094664864584 
-0.02367275297909652 
-0.03124586722993301 
-0.03208277110176242 
-0.03114255255922749 
-0.03620448917427536 
0 
-0.03475003875495783 
-0.03493262240102401 
-0.03190951635914107 
-0.02985286776523647 
-0.03478823781912716 
-0.03131424290525481 
-0.03421710427770837 
0.04964371406703594 
-0.03298784977149444 
-0.03430811322804118 
-0.03370619065334235 
-0.02491277108188229 
-0.03287974422699842 
-0.03210371905712556 
-0.03131348080318129 
0 
-1 
-0.03259230253450589 
-0.03201845472531525 
0 
-0.03198525497961058 
-0.04190683511337956 
-0.03097732966006961 
0.1061734009862609 
-0.5 
-0.03456888643004583 
-0.03144093116780972 
0 
0 
-0.02962411130221265 
-0.03228216622863912 
-0.2699321059803097 
0 
0 
-2.688821387764051e-17 
-0.0330754879393049 
-0.0506779290087505 
-0.0332398386214878 
2.775557561562891e-17 
-0.03123282265976808 
-0.03359165066626964 
-0.03324752326798745 
-0.03434071968891823 
-2.775557561562891e-17 
-0.03318248982968765 
-0.03272823749473782 
-0.03946440480003313 
-0.03251256478032854 
-0.02971242366798105 
0.02353305430882791 
-0.03255239995859735 
-0.5 
-0.0269946263662733 
-0.03274497381325831 
-0.02680275087496016 
-0.03079723689346588 
-0.03333358698135779 
-0.03007622253216832 
-0.03316811462767441 
-0.05461574169625563 
-0.01971706625513 
-0.03256654508806966 
-0.03088675753322588 
-0.03004738096577401 
-0.03209419429446887 
0 
-0.03158189540958774 
0.2707923541962006 
-0.3486037584372122 
-9.8879238130678e-17 
-0.0307539982330752 
-0.03433788702061619 
-0.02843482355708003 
-0.03108458586838254 
0.7431088636864358 
0.2709985190155795 
-0.03812816253492579 
-0.03331171413225326 
-0.02797243010198616 
-0.03214082426322984 
-0.03397357506727349 
-2.775557561562891e-17 
-0.03251661275095088 
-0.03365614695549003 
-0.03181490023447506 
0 
-0.03309870680061066 
-0.03244082546448112 
-0.02861485836934812 
-0.02905105750801535 
0 
0.4168747767069103 
-0.2691037730364298 
-0.03411743699336776 
0 
-0.02822222261744639 
-0.03347305967850222 
-0.03607071359592513 
-0.03256531911615893 
-0.03426198716092455 
-0.02672976351860504 
-0.02898338812817829 
-0.06838561212720129 
0.04904654304578053 
-0.03375196043380406 
-0.03371787966074563 
-0.02936472772585972 
-0.5 
0.3219996106236866 
-0.03207900396004593 
-0.03468534339051169 
-0.02774000168277645 
0.0004312930202835241 
-0.03001662184124286 
0.1007644473134826 
0.4785897033714859 
-0.03522215396086364 
-0.03307580141626197 
0.9999999999999999 
-0.2286010794524431 
-0.03338711947663708 
-0.03489649452010377 
-0.03448539433486639 
0.2749826326132345 
-0.03192846366811637 
0 
-0.03309047104631305 
-0.0340913070059449 
-0.0328294094418914 
0.7735157962439346 
-0.02089363619658079 
-0.5 
-0.03184257685228867 
0.159079189731461 
0 
-0.03043313161680467 
0.1818066940930411 
-0.0332175831950032 
-0.02658207977961052 
-0.0340595914524699 
-0.03241972502961719 
-0.03680361684352564 
-0.03094211852846809 
0 
-0.03578811932329089 
-0.03287626360508449 
-0.03353213165968406 
-0.03142360027199694 
-0.0358940749343019 
-0.03102636518753218 
-2.602085213965211e-17 
-0.03401648203632701 
-0.05776111474950286 
-0.02981278646724196 
-0.2107228221793545 
0 
-0.5 
-0.033355365559879 
-0.03272357839196401 
-0.02770774989651204 
-0.04423872410730327 
1.958574257847261 
-0.03439972279351444 
0 
-2.775557561562891e-17 
-0.02772590037332606 
0 
-0.03498236954856616 
-0.03251067049654716 
-0.03249216270166696 
-0.03580176947566099 
0.820172469673917 
0 
0.09125838907183965 
-0.0318330010625946 
-0.03384886023474101 
1 
0.4999999999999999 
-0.03097752774670498 
-0.03224409592525052 
-0.03392528499421377 
-0.03328777822448996 
-0.03150019585078888 
-0.03321721324942322 
0.4999999999999998 
-0.03295469618996502 
-0.03094357505774935 
-0.04903610260474481 
-0.03295802050794 
-0.02414619697917447 
-0.03349496107455219 
1 
0.08350671168156908 
0.2164609573332833 
-0.03466926258461123 
-0.03217633349820764 
-0.02911451329261496 
0 
0 
-0.03293449076819081 
-1 
-0.03030557753078222 
-0.03392077364230497 
-0.03442047050533979 
-0.03241218012212349 
-0.03139428164074543 
-0.03211282230012889 
0.4751580486606937 
-0.01903110629389698 
-0.03468048852007377 
-0.0325332472744373 
-1.5 
-0.02966992714357982 
-0.02876443586209321 
-0.0311710599751743 
-0.03206148177812625 
3.816391647148976e-17 
-0.9470079297044943 
0 
-0.02393148283207732 
-0.03496925540847071 
-0.03302535288154271 
1.734723475976807e-18 
-0.2278013620741641 
0.1513456689311569 
0.04293506645546391 
0 
-0.03288049578246144 
1.387778780781446e-17 
0 
-0.03464694506400481 
-0.03312561705113028 
0.06518234951613713 
0 
5.724587470723463e-17 
-0.02859205662425358 
-0.4318850679342408 
-0.0345271564661517 
-0.001654142304263103 
0.5000000000000002 
1 
-0.0341849830440395 
-0.02649620735509512 
0.4685412965389245 
0 
-0.03341132154984804 
-0.03412864038511727 
3.469446951953614e-18 
0 
-0.03295206671939919 
-0.0370896353566417 
-0.03412376292959719 
0.4999999999999999 
-0.031761932108249 
-0.03119271677434251 
-0.03774652543630171 
-0.03401604090574734 
0.4911317205459944 
0.1014405956128253 
-0.5 
-0.03076834389756213 
-0.03187755728522453 
-0.03388614347902359 
1 
-0.03335339107463563 
-0.03153957944716838 
-6.418476861114186e-17 
-1.249000902703301e-16 
-0.03299532264340415 
-0.03319540777252644 
0.7350742207097443 
-0.03239790609716953 
-0.04229155417103453 
-0.03362213663780685 
-0.3737820755140758 
-0.03175133883184238 
-0.03294593097970151 
-0.03179113500420627 
0.5 
-0.03901453132062345 
-0.02704255579128578 
0 
0.5000000000000001 
-0.03238800353539943 
-0.03333768759335043 
0.2291783468619338 
0.5 
-0.03299571312960826 
-0.01896860256182337 
-0.03338476776607352 
0 
-0.02610736554890955 
8.326672684688674e-17 
-0.03323343693586455 
-0.03251066035794124 
-0.03313876390882657 
0.88618728814578 
-0.03188645996400867 
-0.03294606167686659 
-0.03326217734849949 
-0.03240498628574581 
-0.03205343618114954 
0 
0.4999999999999999 
-0.02855313478208958 
-0.03483722376333213 
-0.03317254612889736 
0 
-0.03387208180435686 
-0.03208345563884611 
-0.03359121391843767 
-0.0356189695768717 
-0.03292697558160783 
1.110223024625157e-16 
-0.03745933454398508 
-0.03333189113394896 
-0.03279171755063529 
-5.225854471380131e-17 
0 
-0.03228563531492259 
0.2512172057278848 
-0.0336355290541747 
-0.03227331959911134 
-0.03329625724565969 
0.3392965539526902 
-0.03351425673839397 
0.433797019833656 
-0.03313860394278056 
-0.03283750141054965 
0.159434894991493 
-0.03137354250263948 
-0.03375050272884889 
-0.7549247016928652 
-0.03643271777987005 
-0.03461763022976188 
-0.03335143470724024 
2.775557561562891e-17 
-0.03433552674208735 
-1.387778780781446e-17 
0 
0.1270628271707032 
-0.03564713848866838 
-0.03185415770571047 
-0.03335592786775057 
-0.2298100429077643 
0.02327037549967192 
0.1080119072015324 
-0.03357197520900114 
-0.03285143646278427 
-0.03389570473496006 
-0.03057059864720553 
-0.004523741218070036 
-0.03105368504208161 
-0.03248973279792542 
-0.0329509031500743 
0 
-0.03423810534128087 
-0.03282779835488005 
-0.02980724849256064 
0.2741121450037637 
0.3887633279203696 
-0.03373438603053207 
-0.03309843321817969 
-0.03339369875693544 
-0.5 
-0.03292481375618574 
-0.03312629630433947 
0 
0.9999999999999999 
-0.03428639289636637 
-0.03367783113225106 
-0.03287867549095808 
-0.03326174630031602 
0 
0 
0.5000000000000002 
0 
0 
-0.03395100061842071 
0 
-0.3823820800715899 
-0.03281351944253249 
-0.03597586736329122 
0 
-0.03520958933410894 
-0.03194123969915721 
-0.3537691445605454 
-3.05311331771918e-16 
-0.0325040639569204 
0.4999999999999998 
-0.03143635776492358 
0.4712609870886845 
-0.03245891249457143 
-0.03053401662025173 
0.02456672582741162 
-0.03314618488541456 
-0.03217913359340388 
-0.03368777616444086 
-0.03555900655803304 
5.551115123125783e-17 
-0.03265165637564602 
-0.03422768741519267 
-0.03271639788959945 
-0.02814482018284476 
-0.4761910048252866 
0.5000000000000002 
-0.5 
-0.0253188869327202 
0.1011659036700198 
-0.03331260133512622 
-0.03223621725013549 
-0.02060344222331647 
-0.03395445629244388 
-0.0519394096567266 
0.9784929562712631 
-0.03287059459546931 
-0.03225090550404777 
0 
0 
-0.03047977054864272 
0 
0 
-0.02839017623915541 
-0.03402786792262321 
0 
-0.03507593979449888 
-0.02773410082560398 
1 
-0.03291365490776548 
-2.775557561562891e-17 
0.6169964947105508 
-0.0309071887388512 
-0.03082039956281588 
0 
-5.551115123125783e-17 
0 
-2.775557561562891e-17 
0.7279071677012389 
5.551115123125783e-17 
-0.03274378947236185 
-2.775557561562891e-17 
-0.03298535669490743 
-0.03264993615435667 
-5.204170427930421e-17 
-0.03333622139018494 
-0.03200530722994946 
-3.469446951953614e-18 
-0.03180461612584558 
-0.03273849142872164 
-1 
-0.03400423875437535 
-0.03214386215492172 
0.05773399958310937 
-0.03205464183990244 
-0.03382084657665393 
-5.551115123125783e-17 
-0.02722063092493554 
0.8901009659672079 
0 
-0.03102936593837816 
-0.03148319961186354 
0 
-0.03446158680919954 
0 
-0.0326251063280705 
-0.03385579527143728 
0.1057512806485207 
-0.03357864588697471 
-0.03108035755827434 
-0.01760336918882879 
-0.0329532134274822 
-0.0290240982499146 
0.5000000000000001 
0 
0.2297250324603346 
-0.03110323067622837 
-0.03280706692135439 
1.452830911130576e-17 
-0.285854694945032 
-0.03573398786846504 
-0.03305664400155039 
0.7312847077713874 
-0.5 
2.775557561562891e-17 
-0.0342271352504725 
0.231982070336494 
0.1983490293050851 
-0.02809252562795267 
-0.03256352685998375 
0 
-0.03259790893267975 
-0.0333777776122758 
-0.03195399766358981 
-0.4999999999999999 
-0.03423982301945094 
-0.02975228266175232 
-0.03687457963016007 
0.02417337762133095 
0 
-0.1634277098905474 
-0.03986229710131278 
-0.5 
0 
-0.03128352597091942 
-0.4789472791043346 
-0.0200899704071929 
-0.03341312606637384 
-0.03044832157370887 
-2.775557561562891e-17 
-0.03510398799822236 
-0.0335115395342194 
-2.688821387764051e-17 
-0.03370395160841366 
0 
-0.03130727947753568 
-0.02943053705303103 
-0.03469053983975173 
2.602085213965211e-18 
-0.03095731152752145 
-0.03296416945774136 
-0.03105107846547644 
-0.03482508319445675 
-0.03633957039653113 
-0.03041886745249793 
-0.03202515524549376 
-0.03283057531141551 
-0.02599932697381864 
-0.0351370216937866 
-0.03466658201768399 
-0.2492131850151902 
-0.03280416401665145 
-6.938893903907228e-18 
-0.03309421506423711 
-0.03415796697542224 
1 
-0.03227046233873017 
-0.03371199494254284 
0.2284609700675469 
-0.03246248792919289 
-0.0364066215131585 
0.4999999999999998 
-0.02417835043092044 
-0.03387327718298366 
-0.03325636410704706 
-0.0305302170037958 
0 
-0.05087467091270512 
-0.02898868098406043 
-0.03353175663849495 
-0.03400457032126557 
-0.02124522008406406 
-0.03380523256187832 
-0.03053045773404902 
-0.04732547281753315 
0.1036593836971954 
-0.03469413588239311 
4.163336342344337e-17 
0.3270431178623241 
0 
0 
-0.03351645902816986 
0 
-0.07319070294209175 
-0.02925318554302482 
-1 
-0.4200026809395042 
-0.03233130042688634 
6.938893903907228e-18 
0 
-0.03356321840388187 
0 
0.7286240154910676 
-0.03448848021172189 
-0.0278506614248359 
-0.03341527156915763 
-0.03194098902365886 
-0.03305574625358006 
-0.01974030143612475 
0.4999999999999999 
-0.03188009262118349 
-0.0331199709660227 
-0.0328589913052407 
-0.02780888333896056 
-0.0312175046351806 
-0.03352241525113536 
-0.02794909148668469 
-0.03345160154782399 
0 
0 
-0.03821146230911678 
-0.03503001692603069 
-0.03524126345582972 
0 
0 
-0.03349159515807865 
-0.03141775965844492 
-0.03600719611150255 
-1 
-0.3853949786014856 
-0.02873447646031164 
-0.0342652644899652 
-0.02920317561454668 
-0.03407715547254522 
-0.02784601703743117 
-0.03214922218018818 
-0.03388868788404396 
0.2764285947377924 
0 
0 
-0.0326738201858352 
-0.1110545432218917 
-0.03346876540420598 
-0.03801761314508366 
-0.03311625936226072 
0 
-0.03079576597472242 
0 
0.4999999999999999 
0 
-0.03357868876124946 
-0.03319907481957642 
0.4999999999999999 
-0.03483130350162275 
-0.03426843630833645 
-8.326672684688674e-17 
-0.03348238506886098 
0.05342765519690808 
-0.03485543929055025 
-0.1123518948717302 
-0.03241797254861774 
-0.1525936357875718 
-0.03382256387472106 
0 
-0.02133409526460706 
-0.03367378668607174 
-0.03328205027203317 
-0.03336456998302161 
-0.5 
-0.04128287985299656 
-0.0326740530649679 
-0.03184192292317625 
0 
0 
3.968179951296946e-17 
-0.03380389041479001 
-0.02192818872849728 
-0.03495423059167582 
-0.03348546988665639 
0 
-0.03312121568370208 
-0.03145858451465228 
-0.02947155561909237 
-0.03425486978335986 
-0.03504950058861524 
-0.1645465400082895 
0 
0 
-0.03324943183624415 
-0.0207764591370555 
-0.03502520061544181 
0 
-0.03327895757412325 
-0.02120649502662669 
-0.03344475444116218 
0.5239070302535621 
0 
-0.02852214658847164 
-1.387778780781446e-17 
-0.03312859784621775 
-0.02519347360404395 
-0.03239981200006491 
-0.02811546632936065 
-0.5 
0.005994198278329569 
-0.4752665857142246 
-0.03390556842094581 
-0.03504099193827609 
0.03604319481212497 
-0.01924095283702534 
-0.02786911001624809 
0 
0 
-0.03352965237260236 
-0.03296808814669868 
0 
-0.3054536632558775 
0 
-0.03206783321340343 
-0.2297561607470763 
-0.03316669955273777 
-0.02873156920846007 
-0.03268691310892943 
-0.03271781433360408 
-5.551115123125783e-17 
-0.03297095814093887 
-0.02931187672454928 
-0.03395267096480328 
-0.03095312647326221 
-0.03374819681018879 
-0.03300661023477665 
-0.03304625735933373 
-0.0339703695344219 
-0.3245494062918474 
-0.03377467749148791 
-0.05268432971690008 
-0.03049021179569827 
0.1734160880497834 
-0.03376586336757192 
0 
0 
-0.03526807846173433 
0 
-0.03411280040459799 
-0.02809537012112084 
0.5 
0.0207403057076707 
0.01129777385410353 
-0.03602487186342517 
0 
-0.032705998207509 
0 
6.938893903907228e-18 
0 
-0.03370006050604363 
0 
-0.0312104507773775 
-0.02652224067414794 
-0.03343602382494884 
-0.03236011637851768 
0 
-0.03282450846044115 
0.3108318544139302 
-0.03292519332876905 
-0.03329907973572013 
-0.03844668041628319 
-0.03032333423689859 
0 
-1.5 
-0.02976867555356101 
-0.03371501662237335 
0 
0 
0.3351956490473976 
-0.03436143669289216 
0.5 
-0.03362827042899923 
-0.4999999999999999 
-0.5 
0.2290082557732996 
-0.051874493419487 
0.2182855298301645 
0 
0.4999999999999999 
-0.03217731758759097 
-0.03454573025895313 
-0.03033433662032805 
-0.0315276573230941 
-0.4999999999999999 
-0.03339106404572691 
-0.02033820560989849 
-0.03224188163624347 
-0.06345457349065552 
-0.009035899899154466 
-0.03392263961359988 
-0.03348730635826358 
-0.03015243270436561 
-0.03698554582512623 
0.02859520834503639 
0 
6.938893903907228e-17 
0.5 
-5.551115123125783e-17 
0 
-0.03252064795382066 
1 
-0.5000000000000001 
0 
0.002738917221437456 
-0.03355356393779692 
-0.03444900081411671 
0 
-0.0331006231484744 
-0.02038894831960462 
-0.03346336705798802 
-0.03151049939370532 
0 
0 
-0.03328164976402087 
-0.2287007199202286 
0 
0 
-0.03109352821433914 
0 
-0.03240116199129411 
0 
0.02268464073994348 
-0.03345549092858172 
-0.4870036558848763 
-0.03314630767613251 
-0.03580246798117993 
-0.03288965773607511 
-0.03317952404907974 
-0.0305001723038323 
-0.03036457912848453 
1 
0 
0 
-0.03355573166260049 
-0.03356305069473277 
-0.03387414712269868 
0 
-0.0332385377034511 
-0.4999999999999999 
-0.03545258218424879 
-0.03166553339789503 
-2.862293735361732e-17 
-0.0357691715309888 
1.950107696300679 
0 
0 
0.23212759335368 
-0.04262363079547191 
-0.02879046075250625 
-0.03098033982128692 
0.1745860074135497 
-0.02611376124197184 
0 
0.1171704745047698 
0 
-0.0322923753764477 
1.225593933440077 
-0.03428444250607716 
-0.02637516660522693 
0 
-0.03294373352241001 
0.842075952486408 
-1.387778780781446e-17 
-0.5 
-0.03557538644649613 
-0.03037894559672613 
-0.03370094628167217 
-0.5 
-0.03762653480893749 
-0.03096689340648808 
-0.03569849220394188 
0 
-0.03260050453591692 
-0.03610377936197731 
-0.0306590020742957 
-0.8546599828896064 
-0.03427657490686374 
-0.03431974468106398 
0.2300356425581587 
-0.03377187783211161 
-0.03442367261714102 
-1.387778780781446e-17 
-0.5000000000000001 
-0.03226042723890821 
-0.2265147480611448 
-0.03385354912899262 
0 
-0.03377358875750344 
-0.03115068257647602 
-0.03156708815665484 
1.942890293094024e-16 
-0.1124849153962673 
-0.03257005292837306 
-0.03325327063141112 
0 
-0.02593979552575408 
0.4999999999999999 
-0.03388037579235753 
0 
-0.02172629065940368 
-0.03346520757303607 
-0.03503510547636974 
-0.03133203862710771 
0.9791494020437902 
0.02310147301897684 
0 
2.775557561562891e-17 
-0.03251881444885202 
-0.03328602261186116 
-0.03281061387846896 
-2.775557561562891e-17 
-0.03726961260468682 
0.04817021088452832 
-0.03355969793831072 
-0.03603216693754654 
0.2302088784306401 
0 
-0.03161688871511284 
-0.03362770739259892 
0 
-0.5 
0 
0.01187792335629201 
-0.2331615893851827 
-0.03483032646781087 
0 
-0.03168110082488611 
-0.03250116980908896 
-0.03412703104188197 
-1.665334536937735e-16 
0 
0 
0 
0 
0 
-0.03319910643767338 
-0.04791405830906471 
-0.04184281750395843 
-0.5 
-0.5 
-0.0433216700519298 
-0.03262785088664603 
0 
0.3748876536938161 
-0.5 
0.5000000000000002 
0 
0 
-0.5 
-0.03408364005460229 
5.551115123125783e-17 
-0.03270492344566914 
-0.03342566037402082 
0 
-0.03384038780309923 
-0.033676245866414 
0 
-0.02496322091869872 
0 
-0.03210475084784159 
-0.0542526462997614 
-0.01969773898003448 
0 
-1.387778780781446e-17 
0 
0.8967209478765419 
0 
-0.01963727454071451 
-0.03424349892427331 
-0.03683969545725432 
-0.03292413472932443 
-0.04213522068984406 
0.5 
0 
-0.03362382475865804 
-0.5 
0 
-0.03434839468692944 
0 
0.02405483423860511 
-0.03212332713951408 
0.02057946947515657 
0 
-0.03363458469021469 
-0.02791389833025763 
-0.03199972802213545 
0 
-0.03241217673638103 
-0.02625673492746068 
-0.03339362722476513 
0.5000000000000001 
1 
0 
-0.03318167817600476 
0.2803286037082918 
0 
0 
0 
0.2256499146202438 
-0.03210816294364228 
-0.03402239448181052 
-0.03321502969547588 
2.775557561562891e-17 
0 
3.469446951953614e-18 
-0.02835736410285782 
-0.007851095830098045 
0 
0 
0 
0.2319777970895932 
5.204170427930421e-18 
0.6854996390136275 
0 
-0.03443515927036961 
-0.03514573857156823 
-0.03420522166413711 
0 
0.2745323704360162 
-0.03355994780611606 
0.1813674269233994 
-0.03523507725399336 
0 
-0.08357222894813546 
-0.03516415142571377 
0.1827896385610399 
-0.06837519248446516 
-0.03386892756026655 
0 
-0.0309952399465374 
-0.03141542238594171 
5.551115123125783e-17 
0 
-0.04156758741956833 
0.02324283488979285 
-0.03292753777729462 
-0.03359519986055759 
-0.03575741650856653 
0 
0 
0 
-0.03575654906896386 
0.6664614307878399 
-0.03247434535245541 
0.4322114365234071 
-0.03226221754136679 
-0.03434292297253225 
-0.2656400650826601 
-0.03332508281142414 
0.4313870338003714 
-0.03383357761647443 
-0.03197467803592609 
-0.5 
-0.03365960315262168 
0 
6.938893903907228e-18 
0.7058094449210617 
-0.5 
-0.03303838544183932 
-1.20134045165457 
0 
-0.03384383598050323 
0.001909156524092168 
0.7287486252373212 
0 
0 
3.122502256758253e-17 
-0.03346026017376055 
0 
-0.01537051003106389 
-0.03369237137108613 
-0.03053147053815161 
0 
-0.03388530195158815 
0 
-0.03411054486473817 
-0.01970916130035538 
-0.02019839988011863 
0.2557264371755111 
-0.03376496268086443 
1.110223024625157e-16 
-0.0359541880265299 
-0.03464587053202393 
-0.02833311416454835 
-8.326672684688674e-17 
-0.02739112296152836 
0 
0 
-0.0349067152559655 
0.07643377001714807 
-0.03311843179630755 
0 
-0.01214918764848272 
-0.03191030561137297 
-0.03398580859820547 
-0.03435214463663334 
0 
-0.03451415738292167 
-0.02977626491846531 
-0.4852543516624498 
-0.02768549826291196 
-0.02062348232706702 
-0.03329821260112108 
0 
0 
0.4999999999999999 
-0.03470657662966851 
-0.03231825655167765 
-0.03383064117920281 
0 
-0.5 
0.4718786056373677 
-0.2295280180029863 
0 
0.1606545927648185 
-0.03089528257615505 
-0.04440191639655475 
-5.551115123125783e-17 
0 
-0.0351872191276025 
0 
0 
1 
-0.5 
-0.03517655139916981 
-0.03632735590679376 
0 
-0.03021706750463407 
-0.03347867559686718 
0 
-0.02195538510930542 
-0.5 
0.4999999999999997 
-0.03314453075993714 
-2.146720301521299e-17 
0 
0 
-2.775557561562891e-17 
0 
-0.03412991192765538 
1 
0 
-0.1113359231547517 
-0.02780470689704365 
0.02126669145762404 
-0.02865788064691795 
-0.03236061702883514 
-0.02648930136207465 
-0.3850901126110535 
0.5189705400995382 
-0.03322627869038125 
-0.03453129625164852 
0 
-0.2261143763136221 
-0.02737502886774972 
1 
-0.3010589512081424 
-3.469446951953614e-17 
0 
-0.03488519634904556 
2.42861286636753e-17 
-0.5 
-0.02184268037160786 
-0.0342017364512591 
0.1513904490642735 
-0.02821934915545061 
-0.03324939714801904 
0 
0 
0 
-0.02789992094752762 
0 
-0.2409733610041243 
-0.03446981678523761 
0 
4.336808689942018e-18 
0.7052473239027418 
-0.0271012730234813 
0 
0 
0.5 
-0.03188554596718628 
-0.0331926125557697 
5.898059818321144e-17 
0.5210513665315581 
-0.03085866320852687 
-2.775557561562891e-17 
-0.03254176262209724 
1 
0 
-0.04523208266578595 
-0.03456495445384627 
-0.03329385244046584 
0 
-0.0282622354091208 
-0.02470036493026694 
-0.03333859840708549 
-5.551115123125783e-17 
-0.03681018033107283 
0 
0 
-6.938893903907228e-18 
0 
-0.03166219396554731 
-0.03294653546922078 
-0.4453760582793505 
0.10746646525412 
-0.03244015388379176 
-0.5 
-0.4999999999999999 
-0.03331424235947258 
-0.01235617823608251 
0 
0.2496682827573907 
-0.03478551251792202 
-0.03213138423560863 
-0.04560985922902445 
0 
0 
-0.03332073066568191 
-0.0348184560945056 
0.1046187173761467 
-0.03310278204419265 
0 
-0.03372137508218283 
-0.03668723271049523 
-0.03411878562959 
-0.03491873826732531 
-0.03060108767587073 
0 
-0.03251500882861382 
0.9787326046049742 
-0.0007335921473053768 
-0.03052073581063341 
0.7307272543630196 
-0.03311786973738645 
-0.03410001780959441 
0.06753783028920352 
0 
-0.03511350853529535 
-0.033722301969245 
0.1836290895881773 
0 
0 
0.2567601444174276 
0.5 
-0.2703046925634932 
-0.02671825025093781 
0.5 
-0.03103028411125356 
-0.03396813975500999 
-0.5 
0.1518469403270496 
0 
0 
-0.03344058358906648 
-0.02467050924981499 
-0.06661186261835625 
0 
-0.03462252569477178 
-0.03326597506357925 
-0.03189326949595531 
-0.03309017056176634 
-0.03551368860469936 
-0.02127083001001016 
0 
-0.03529655850664221 
5.551115123125783e-17 
0 
0 
0.02433129689641446 
0 
-0.03476838047366726 
-0.03277856373649825 
-0.3351775135049374 
0 
-0.03363475809047484 
1.387778780781446e-17 
-0.03433114321931745 
-0.02968067026471415 
0 
-0.03488123728076462 
-0.2167102638957296 
0 
0 
-0.03537431359021428 
-0.03345467873195429 
0 
-0.2237413006491174 
-0.5 
-0.02861965922862332 
-5.637851296924623e-17 
-5.551115123125783e-17 
-0.03394096692135853 
0.02385867657145218 
-0.03227034115214836 
0.5 
-0.5 
0 
-0.5 
-0.03310975131832862 
-0.02973522257247683 
-0.5 
0.02008302049246191 
-0.03444205114954707 
-0.02876794140379289 
-0.1557742328852487 
-0.03109671776231291 
0 
0 
-0.5 
0 
-0.476162982373513 
0.06716743589660826 
-0.03385490361775717 
-0.03172801331138238 
2.818925648462312e-17 
-0.05780040574778991 
0.0200172373224641 
0.38342577815507 
0.01938939135459285 
0.7429258918891857 
-0.1042110678285672 
0 
6.938893903907228e-17 
-0.03291424795377243 
-0.0327937147024245 
0 
0 
-5.551115123125783e-17 
-0.02824789205160522 
0.1012655284462907 
-0.03354991478676422 
0 
-0.5 
-0.5 
6.938893903907228e-18 
-0.0409497243777453 
-0.5 
-0.03155683863327766 
0 
0 
-0.02977348632623275 
-0.4999999999999999 
-0.03423078541389582 
-0.03237510782046587 
6.938893903907228e-18 
-0.03359864941951603 
0 
0.003562056055922075 
-0.5 
-0.01921823793028545 
-0.5 
0 
0.5 
0 
-0.0330321337875485 
-0.03202609178435319 
-0.03375001076196751 
-0.03380452741419654 
-0.0334430167892677 
0 
0 
0 
7.28583859910259e-17 
-0.03167526208729657 
0.8058713491968006 
0 
-8.673617379884035e-18 
0.6132014722127219 
-0.03623908857134955 
0 
-0.03416022515935586 
0.5 
-0.2256597666210258 
1.665334536937735e-16 
0.1817298444299335 
4.163336342344337e-17 
-0.0348546600955268 
-0.2256192181926284 
0 
-0.03755502094821053 
0 
-0.03339098788368301 
-0.03164118744264098 
-0.0194608554615967 
-0.03437476856307561 
0 
-0.230488954993215 
-0.03350900851816125 
0 
-0.03691057253771227 
-1.734723475976807e-18 
0 
0 
0 
0 
-0.03675658919446118 
0 
-0.0326831293285616 
0 
-0.5 
-0.03427462795873626 
-0.01990604789473785 
-0.5 
0 
-0.02855057925479308 
-0.03501748592002751 
-0.5 
-0.02273000483866007 
-0.07772387452464152 
0 
-0.03220972690083548 
-3.469446951953614e-17 
-0.5 
-0.1135206092068047 
-1 
0.06823452376075828 
-0.0424118523548242 
-0.5000000000000001 
0.01164970576061031 
0 
1 
-0.03151207239947839 
0 
0 
-0.03278219593606199 
-0.02745439468569741 
1 
-0.03292823458152257 
-0.4316259409054284 
0 
-0.03452270709649527 
1 
-0.03326119079499592 
0.04601757461262726 
0 
-0.03461437319092839 
-0.0313601019861551 
-5.551115123125783e-17 
-0.2185850422703229 
-0.03456992204364502 
0.2255414300495237 
0 
-0.03297038861561616 
-0.03471238188322839 
-0.02605268522121114 
-0.03499903577786451 
-0.03054626541850658 
-0.03187738271002825 
-3.469446951953614e-18 
0 
-0.03330698999830244 
-3.469446951953614e-18 
-0.03573780489529574 
0 
0.7070705919857251 
-0.02596050733850409 
0 
0.01122687156992727 
-0.02847685828354504 
-0.02779180515522828 
0 
0.02062972659798666 
-0.03287792856636879 
0 
-0.03341324074062157 
0 
-0.03040400704915568 
-0.03020037702205769 
-0.03485501484757905 
-0.03195876913748617 
-2.775557561562891e-17 
0.9999999999999999 
-0.02306313331412392 
-0.02083272974644812 
-0.5 
-0.01842316352760404 
-0.03299974166863384 
-0.03325966569153495 
0 
0 
2.081668171172169e-17 
0 
0 
0 
0 
0 
0.02092305340204753 
0 
0 
0.02335837767846537 
0 
0.4999999999999999 
-0.02017126773909055 
-0.1051634822544958 
0 
-0.03448826489676707 
-0.03367356845368023 
-0.03371687925222047 
-9.454242944073599e-17 
-0.03306794936794247 
-0.5 
-0.03395577313509911 
2.775557561562891e-17 
-1.088538981175446e-16 
-0.03311128264208004 
-0.03341857693131547 
0 
-6.938893903907228e-18 
-0.03373289857626 
0 
0 
-2.775557561562891e-17 
-0.03296834300991164 
0 
0 
0 
0 
-0.02846592133351927 
0 
0.04759252419858698 
1.734723475976807e-18 
2.775557561562891e-17 
0 
0.1189942934989655 
0.2745809622810997 
0 
-1.387778780781446e-17 
-0.5 
-0.03319313954431599 
0 
-0.03535026983438794 
-0.02772417744773913 
0 
2.775557561562891e-17 
0.02311643062125754 
0 
0 
-0.03228338034445316 
-2.775557561562891e-17 
0 
0 
1.387778780781446e-17 
-0.02881723102420232 
-0.03509439310699561 
-0.02872778914135021 
-0.04172682492276012 
0.003169790044409385 
-0.1644250580164371 
-0.02928852347931338 
0 
-0.02896133200614941 
-0.03319184852193194 
-0.05249537737924621 
4.163336342344337e-17 
-0.03663986150713366 
0 
0 
-0.04418884352022656 
0 
-0.03361338044336089 
-0.2894341172173658 
0.5 
0.3743938607096668 
0 
-0.03168415610492273 
0 
0 
-0.5 
0 
-0.5000000000000001 
0 
0.4740355577399804 
-0.5 
-6.938893903907228e-18 
0.5 
-0.1120385119490307 
0 
-0.5 
-0.03114980594685665 
0 
-0.03020509352116968 
-0.03196888100233489 
0.1821140623717779 
-0.03266760462067296 
-0.03179195445247509 
-0.0327685325173648 
-0.03183597045425587 
-0.0335961098702095 
4.336808689942018e-18 
0 
0 
1.387778780781446e-17 
-0.037191686642864 
0 
0 
0 
-0.02597615603025753 
0 
-0.03460279196068294 
0.02034200042020107 
0 
0.1803771742962387 
0.2420334174718011 
-1 
-0.03243057895291596 
0 
1.561251128379126e-17 
-0.4999999999999999 
-0.03047530715956615 
0 
0 
-0.03251647125400255 
-0.5 
-0.01396345684020784 
-0.03362870903627112 
8.673617379884035e-19 
-0.01934666821983188 
-0.03408466219070291 
0 
-0.0206571806328406 
0 
0 
0.1797943507351323 
0 
-0.0373638807718169 
0 
-0.03315653130623886 
-0.5 
0 
0 
0 
0 
0 
1.387778780781446e-17 
0 
0 
0.9324766389874013 
0 
0 
0 
-0.03388698327864287 
0 
-0.0321442907126217 
-0.0333369980037085 
-1 
-0.007970883493414752 
0 
-0.00492948049792321 
-0.5 
-0.03330791442990157 
-0.03366862162371287 
-0.03028524517461631 
0 
0 
-0.03599750085668629 
0 
0.5 
0 
0 
0.02314463687951838 
-0.0331485190531062 
-0.03140006846432685 
0 
0 
0.8477277201852849 
0 
0 
0 
0 
4.553649124439119e-18 
0 
0 
0 
0 
0 
-0.5 
-2.388914186386131 
-1.137748930601781 
-3.603877707200501 
0.07868449196694248 
0.08200411503758621 
0.07563427512224127 
-1.137093731534644 
0.0804244658369198 
0.08042517165562681 
0.3621958704758106 
0.3997289077614886 
0.07407358441180129 
-1 
0.07539625212263178 
0.08072382662271053 
0 
-1.137026740612664 
-0.2763203626993436 
-0.6637160618595178 
-0.8266026530209003 
0 
0.07454223330003801 
0.8615023124875169 
0.2379802806911779 
0.07588972808115786 
0 
0.8632587970211216 
0 
0.07432290796102467 
-0.2730332041892507 
0.08739185299641848 
0 
0.07505129144973122 
-1.664841776525542 
0.3975201583016445 
0.3617048371072259 
0.3643531886152632 
0.8602193331969167 
0.08129800184296243 
0.8617646153220946 
0.07659856089842176 
0.0750094826551604 
-1.134675618505828 
0.07477505468897849 
0.0902063655159847 
0.8619383788915443 
-1.140280696477566 
1.281756284290332 
0.08289899732058238 
0.0766256062299961 
0.08121403987889667 
0 
0.07568417683130127 
0 
0.07603138458769913 
0.3975537433361691 
0.2385889032830561 
0.8442962051556135 
-1.136745141877374 
0.07808992303267762 
0.5022008153807757 
0.1084810805693619 
0 
0 
0 
0.08141626977654852 
0.3618947901453263 
0.01866114091172946 
-0.3955972458526414 
-3.603001368396244 
0.1186037491157739 
0.07268570568854113 
-0.7899178879817776 
0 
0.08035180496849577 
-1.133785214857912 
0.1777418630122593 
-1.137722725913054 
-1.119008996086944 
0.3969249766968595 
0.06851404197034919 
1.836791996357093 
0 
-0.4999999999999999 
0.2102885400421212 
-0.197252866312121 
0.0769339566759214 
0.07493183295222594 
0.08151545912611155 
0.08152544404549869 
-0.279680577096959 
0.07542010908857935 
-0.2834781870834792 
-0.1649979821869037 
-0.2127521983320021 
0.8592050064116941 
-0.2640455775135723 
1.608041871908927 
-1.010290473509068 
-0.648673307276495 
0 
0.2375997337477241 
0.07485908458817253 
0.07674766059733887 
0.2620375259054605 
0.08529025156164657 
0.08921492042755454 
0.08084774386461827 
-1.118798579828837 
-0.3889500561432091 
0.07316297167418365 
0.3988278099906888 
-0.1772350764654099 
0.07511791047872982 
0.08131763224690475 
-1.130658148978301 
-0.7377524689681183 
0 
0.2098446486636186 
0.0795667538522091 
0.07579112536014046 
-1.621550120096738 
0.8607507933296903 
0.08163318253549155 
-1.136739135036386 
-1.190547571165764 
0.08098083499457481 
-0.6339041825262854 
0.07530732851953947 
0.07731401474005416 
0.8631838272117968 
0.07435935218894224 
0.08111473190053393 
0.08038654868518924 
-1.136918111787873 
0 
0.2350806256523945 
0.0893228543001684 
1 
0.08173234848821589 
0.08124304727682383 
-0.4999999999999992 
0.07559033682011616 
0 
0 
0.08784142677732548 
-0.2814173146255031 
0.08125072546598772 
-0.2717064105557614 
0.08164539081919862 
0.08139417234855351 
0.07552756251410099 
-1.136663261111975 
-0.2569818191823807 
0 
0.07995879176655844 
-0.273638942277193 
0.08029058718336513 
-1.257260192915163 
0.3980749575465288 
0.08163649230151811 
-0.7392875519582743 
-0.5 
-0.1760365049001006 
0.1076485987106948 
0.08262161733672713 
-0.1684346925015696 
0.8649322322993138 
0.07447132237320674 
-0.5 
0.08145214239235865 
0.08246147473510776 
0 
-1.137061888821934 
0 
-0.2743552916871282 
-0.9138601061481245 
-0.4092989026892886 
-0.1013704473248626 
0.08444062471053369 
0 
0.07929101110310578 
0.07484699051794712 
-0.274615779858651 
6.938893903907228e-18 
-1.136714510780617 
0.2382121090682561 
4.163336342344337e-17 
-0.2145410537220243 
0.07896182324345366 
0.08048379160210295 
0.0780036942720263 
0.864143920441401 
0.08242878463147728 
-1.134036354787215 
0 
0 
1.608760197155676 
0 
0.08309080206355461 
0.397140686153137 
0 
0.08190239503782631 
-0.9999999999999998 
0.07428485076445601 
0.8641503540600562 
-0.2621775583677367 
0.2096037201267912 
-0.1755493350974651 
0.07895861452021699 
0.08099545719515738 
-0.5 
0.8635167258717393 
0 
0.0808058190871425 
1.165273287331311 
-1.136518107378567 
-0.831701010036686 
-0.627769091697262 
0.3646630445581838 
0.07798003454826816 
0 
-1.105715556640131 
0.08225702434973689 
0.1202053972790491 
0.8640065616574077 
0.08461186708845347 
0.03470720374733512 
0.08240407324526777 
0 
0.07149132473647682 
-0.276571480140074 
0 
-1.598233261515642 
-0.7954183398851663 
0.07184908785033838 
-0.5 
0.08248731510963572 
0.3686008133914273 
-0.2734655707700622 
0.07465580509580214 
-0.5 
1 
1.835202611402742 
1 
-0.3931149829447201 
-0.302761231991885 
-0.8300811163155247 
0.07891990117723276 
0.2058369711030511 
1.256265178993385 
0 
0.07532543085713853 
0 
0.857615408527008 
0.08053151820102253 
0.06295127190314515 
0.08096455852105454 
-0.5 
0.861977771101331 
0.08166190417929181 
0.08782181457925496 
0.3945410459482899 
-0.5 
0.07522744541011123 
-0.9999999999999999 
0.07909949057439378 
0 
0.8641632198553082 
0.05286724266663143 
0.3974155568207207 
-0.4999999999999997 
0.3953158883596264 
-1.136154145724105 
-0.2748842274252745 
0.2399004998026738 
0.07764504713226453 
0.1430902627726381 
0.08133876088168779 
0.001838821912566568 
0.07704332821953211 
-0.1629132204415813 
0.07680350250674664 
0 
0.8412370786991259 
0.08177250846004219 
0 
0.08555332844389295 
0.3977951939746495 
0.07304153997795802 
-0.2830244275732797 
-0.3949103787882755 
0.3982343851161692 
0.5 
0 
0.07476866305058744 
0.07444652266386381 
0.08229655181058364 
0.07346242047975404 
0 
-0.5 
0.4487332337242838 
-0.5 
-1.106985892362584 
0.7962403320077043 
0.5028407647101069 
0.0778565979129527 
0.2863974077954957 
-1.135358521126466 
0 
0.8568482068526373 
-0.1674376564582284 
0.09577940674565384 
0.8631719428026891 
0 
0.8598036314196582 
0 
0.08168104093638129 
0.08271877016893418 
0 
0.08101581322455126 
0.07541905217984678 
0.1661392056503746 
0.0809491667519505 
0.3965603414470857 
-0.2745466105944766 
0.3965828793234141 
0.2335836357206066 
0.08133368507830471 
-0.5 
1.266965430347792 
0.074863140609227 
0.0748137046511235 
0.03640264740390081 
0.08005806292938929 
0.07733237157083239 
0.08323641143861704 
0.07474036406391067 
0.08154749783727631 
-0.2816134772194472 
-0.1599773160524783 
0.8643178519362902 
0.08299688770728469 
-0.2740118460330184 
0.07480313752942515 
0.2190785586278725 
-0.3017588553988776 
0.08013048836347766 
0.07950983739134042 
0.0761555280914275 
-1.105308446452626 
0.8607676776562414 
0 
-0.1631001682305459 
0 
0.03154377793303233 
-0.5 
0.07159182638054286 
0.3735031590532945 
0 
-0.2808899928593396 
0.08090155766661787 
0 
0.02109973289791744 
-1.056121189967831 
0.8607133753432655 
0 
0.8618934023214113 
0.08204073335817018 
0 
0 
-0.1667392044637533 
0.07898425115769063 
-0.1592432478952721 
0.08278934617987119 
-0.8303260961879203 
0.07333435408214273 
-0.2570071661619488 
-0.01753290560149905 
0 
2.775557561562891e-17 
0.07394727809802856 
-0.1660278831900468 
0.0779123283079107 
0.4436561572195277 
0.0820041358354716 
0.8648576616168642 
0.07895620851305074 
0.07146147724312106 
0.08357539105717114 
0 
0.0750508162006575 
-1.107781339742079 
-0.1752994544206961 
0.6015862154256841 
0 
0.08078899836421907 
0.08165864118115018 
-0.1634314771051913 
0.07383089022801739 
-0.2333200321704179 
0.8653387738299894 
0.981828988181102 
0.07865347500496399 
0.002205641801767486 
-3.603817160246552 
-0.5 
0.3197428082252552 
0.08681715581267893 
0 
0 
0 
-0.05501836094767157 
0 
0.08560856098924798 
0.08068527825754966 
-3.594854907564175 
0 
0 
-1.111187529273923 
0 
0 
-4.336808689942018e-18 
0 
-2.775557561562891e-17 
-0.2718289741124763 
0 
-0.1763882543334421 
0 
-1.13763254418637 
0.8616735071826369 
0.0669349884716044 
0 
0 
0 
2.775557561562891e-17 
0 
-1.131536443672732 
0 
0.07537313866036206 
-0.2851411462078725 
-1.5 
1.607799086979349 
0.5 
-0.165596345524067 
0.08181686019098811 
0.1754102381807853 
0.4105836105745541 
1.065285619759041 
0.07587506869471342 
0.09020388487594011 
-0.936793178201503 
-1.130531897075702 
0.05806726720452316 
0.3152259208363781 
-0.2738704146367109 
0.0319807685697536 
-1.132050033503602 
-1.13855749084792 
0.07637505472712811 
-0.5 
0.8630990332746875 
0.07394746408465411 
0.07658783200109602 
-0.5 
0.08122060854118372 
-1.101714294876865 
0.08123543594740738 
0.8655349167510308 
0.2795966795732737 
0 
0.07197210788892811 
-0.3908890965042713 
0.08456043175144502 
-0.2836275362745737 
0.8090118809051011 
0.08544880258430131 
0.07529996002142879 
-6.938893903907228e-18 
-2.834493753330094 
0 
-3.596208762489171 
0 
-0.5 
0 
1.992068807540997 
0 
0 
-0.5 
0.441810038973856 
0.5968396349335294 
0.08041749460637436 
0.08113221303648471 
0 
0.08812035957526593 
0.3974841957178897 
0.3958959316897827 
0 
0.09067716661771147 
0.07509683333436609 
0 
0 
0.08111940927528655 
0.39765020211895 
0.3773226150329135 
-0.05588431550146333 
-0.2855053340967758 
-1.920299346516227 
-0.1649135127339841 
0 
0.08478864423462691 
0.08398695821921184 
-0.2743894967919149 
-0.1754023570497146 
1.20193541002571 
0.07649165150868102 
0 
0 
0.08332547705904378 
0.07871815964435827 
0.361828437597021 
-0.5 
0 
-4.510281037539698e-17 
0.3210173735413525 
0.08087887221316163 
0.7786457577002482 
0 
0 
0 
0.3607637013180624 
0.07542633798934634 
0.07922853746483149 
0.07548999175522494 
-1.133861988347743 
0.07610481770527283 
0.07439745168326545 
0.07121385608458475 
0 
0.07455397597665822 
-0.1776894371418862 
0.08051936520107086 
-0.5 
-0.5 
0.08052781865838793 
0 
-5.551115123125783e-17 
-0.762659316909592 
0.8541453761947652 
0.850043183719594 
0.07528675579351449 
0.003271326397150295 
-0.4999999999999999 
0.4047919425382608 
-0.1634511805785551 
0.07460347751541317 
-1.132558365276872 
-0.5 
3.187587462699373 
0.2707210036530563 
0.2395983278814023 
0.864213067853943 
-0.1750606172923997 
1.387778780781446e-17 
0.5113401564443638 
1.197523773292998 
0 
0.07973972834321114 
0.07464759666186538 
0 
-1.137253111833579 
0.07682466906069699 
0.08158124895023826 
0.06253898344792357 
0 
0.08070465625790105 
-5.551115123125783e-17 
-0.5 
0.1951538890788344 
1.608441578317682 
0 
-1.5 
-1.387778780781446e-17 
0.3627940156585057 
-1.016309218585704 
-0.1764408304815147 
0.02314463687951832 
0 
0.07310181340517465 
-0.1618930553945497 
0.09081755606769268 
-0.2822175556614322 
0 
0.5225214124403643 
-0.5 
0.08567895542753995 
0 
0.07534268964869535 
0.08279663033384616 
0.07551207299518461 
1 
-0.5 
0 
-0.5 
0.107873266998855 
0 
0.08029128723333222 
0.3804040387600195 
0 
0 
0.5 
-1.113572576037557 
0.8612068769786764 
-0.177227997637902 
-0.5 
0.8656639314911486 
0.3595724581662239 
0 
-2.499999999999999 
0.359530912572226 
0.09605942524673941 
0.08050372576534312 
-1.132282670018943 
0.8655159898849122 
0 
0 
0.07064826950504371 
1.830220703849456 
0.02324283488979287 
0 
0.3343872929137159 
0.2836158652621709 
-0.6273496079387604 
0.862237345073871 
-0.1709418490227305 
0 
0.03365845818461563 
0 
0.2389763019368778 
0 
0 
0.01009108084159616 
0 
0.0008494172097861796 
0 
0 
0.07590475579738262 
0.5820624389516638 
0 
-1.132509191354834 
0.5 
0.5 
0.8616517869168567 
-0.4662500955992158 
0.3618282102149758 
-0.1819380930299179 
0.3969562562785168 
0.07471028667041463 
0.09574198644640805 
0.0746718448871118 
0.0827951029946726 
-0.2821326278086056 
0.08062683688997777 
0.07557785226062616 
0.08063483748543326 
0.1033322930973502 
-0.2821184223426292 
0 
0.5825636611005703 
0.07966673443845171 
0 
0 
1.261053508554816 
-0.3052908317520134 
0.08004525186053067 
0.08051725603544208 
0.3715915281781635 
0.0809904233854081 
0.0748064734627493 
0.3987109109808177 
0.3937683228579271 
0.0570319086096312 
-0.5000000000000001 
0.0819504266971377 
0.07581449744381316 
0.0726200651491816 
0.8630320863731836 
0.08160678569894449 
0.07634718964356653 
0.07090182696464298 
-0.4999999999999993 
-0.2651799450053827 
0.08235474812443197 
-0.7377506385430521 
0.4030460055423134 
-0.1177743361192151 
0 
0.8641590666018006 
0.07859290228859166 
0.08386205769669336 
-1 
1.387778780781446e-17 
0.3974091710949335 
0.08156177531155558 
-1.137890708561727 
-0.1756623862333045 
0.39654889207995 
0.07461784434173319 
-0.5 
0.3980216921272468 
5.551115123125783e-17 
0.07941560283016927 
0.08189629247004801 
0.08188408517088046 
0.07882804916481104 
-0.7826673621480692 
0.08172304696555173 
-3.600217026785324 
0 
0.08128041989035303 
0.3975604302025419 
0.396977250976813 
0.4439712285186554 
0 
0.0724377785686908 
0.07961460177550085 
-0.2137711886265086 
0.5 
0.09587192925757229 
-0.1243339898411269 
-0.07353586929734908 
0 
0.09357255421737432 
-0.3820407553443949 
0.397692817836699 
0.3976582533054285 
0.07473418081547305 
-0.3094180568846872 
0.3600103610690074 
0.07562059535161848 
0.3973530458883922 
0.3963827700882722 
0.07886236152119903 
0.08013478444505161 
0.08169108367898739 
0 
0 
0 
-0.1660986003116455 
-0.1769705019616572 
0.3642487689275238 
0.2743807818073717 
0.08138391410945404 
1.832749005498907 
0.06808293963844803 
0.08051350780192841 
-0.4129500408435001 
-0.1697064208972311 
0 
-0.5 
0.3954448225394998 
0.07743007147462082 
-0.5 
-0.4999999999999999 
0.07522164688423055 
0 
0.3645403590907482 
0.07453186645406198 
0.3982665315421924 
0.07607650159256518 
0.8605971970148708 
0.07441662943424897 
0.08348975196158341 
-0.1712540165417049 
0.08189363364736704 
0.07488225465255949 
0.07366103878791333 
0.07419834694950053 
0.08204844006366879 
0.07196857147150194 
-1.095341394126802 
0.08169318902491125 
0.8595835052759706 
0.362190718525953 
0.07879454356808745 
0.07517189676705097 
0 
0.08853909440359692 
0.07530891307735281 
0.08162364268764227 
0.6798149586375977 
0.8648619359869103 
-0.454708638706615 
0.08194362037956586 
0.07990833047986422 
0 
0.3985009478360466 
0.08269647136113766 
0.07938031421189591 
0.08113699291760997 
0.3967938093397265 
0.07122673521146564 
-0.1635603738751902 
0 
-0.2811836841593611 
0.07547811777565032 
0.0001438499765196721 
0.392777303658102 
0.08228144614164928 
0.08320686736617178 
0.3959187726851121 
-0.4999999999999998 
0.397219362767862 
-0.1761339515141621 
-0.5 
0 
0.3978012212602415 
0.861214285320303 
-1.508789654637265 
-2.775557561562891e-17 
0 
0.07997299009502834 
-0.7376826714964658 
-1 
0.4031068053447662 
0.3932099654458799 
0 
0 
0 
-1.5 
0.07514533575710899 
0.0858100041702726 
-1.613050166657492 
0.0738484254256231 
0.07550633575232105 
0.08120520309559531 
0.07107121033806507 
0.08440692206461405 
0 
-0.7936562745168037 
-0.2169330744478613 
0.08134599724888106 
-0.2727303521991813 
0.08121987418605196 
0.07562717078808774 
-0.4284905691141048 
-0.7356241640377136 
0.08044542880955266 
0.07417720226483661 
-0.7833115864298824 
0.08131463426884113 
0 
0.3985265033133837 
0 
0.07427164185722744 
0.08065221337125707 
-0.281917697363241 
0.0002309819710945571 
1.68783820738987 
1.5 
0.0741246922481833 
0.3637949664064524 
0.08844346591840885 
0.09393209430706703 
0.07608317792158703 
0.08133600253071327 
-0.5000000000000002 
-0.391503840142373 
-0.4120100154739859 
1.5 
0.08385061704177994 
0.07967476164559047 
2.081668171172169e-17 
0.07405708270065378 
0.3821528036601997 
0.08125706573779341 
0 
0.07628557567238366 
-0.2829462034762895 
1.054623941720649 
0.5241011941098781 
0.08177517808693903 
0.07543261722235298 
0.08114342087908825 
-0.01727335768060109 
-1.137458823089687 
0 
0.07924945613586279 
0.3958761228617668 
0.0803994980038624 
0 
0.07875698692061034 
0.0721182218752463 
-0.5 
0.4190410971344088 
-0.2729010825643415 
0.05612068851700963 
1.261893728019967 
0.397076434056944 
0.3144097746736072 
0.05646055244418291 
0.0805872651717664 
-0.2868350171966496 
1 
0.08453822556414015 
0 
-0.326382524978023 
-0.3231949197608915 
0.6661040269307414 
0 
0 
-1.912379597744689 
-0.5686129661996292 
-0.5139652444243779 
-0.2123180382965131 
0 
0.08119700091449411 
-1.665334536937735e-16 
0.08473349512336487 
0.08081901839231974 
0.3980800529229453 
0.8608024089467642 
2.125036258071589e-17 
-0.2760916427443357 
0 
0 
0.8615424537830978 
0.8458465744482927 
0.08027928036434692 
-0.2726040340017162 
0.5708808401016989 
0.07932614550127223 
0.864632673421152 
0.07469420668181112 
0 
0.07523621987883848 
-0.1010059973816095 
1.105794219676027 
-0.3899665750411747 
-0.1642202882677889 
0.07582035455368298 
0.07499651193506159 
0.08348914689305885 
6.938893903907228e-18 
0.07139282348951201 
-0.5 
-1.137582242851013 
1 
0.0750390868778205 
0.08283231652820246 
0.08481879468101285 
0.08146524958322267 
0.07045236246503214 
0.07981271899500612 
-0.1604993591369954 
0.142522635355539 
0 
0 
1.387778780781446e-17 
0.08103621364508906 
0.08110747814470254 
-0.2821133595963005 
-0.1726675332535562 
0.07936905542681026 
0.08212773779555273 
0 
0.07760975299109588 
0.07278716383140428 
0.4999999999999999 
0.3987609892052919 
0.002257983016283512 
0.08049073115605425 
0 
0.08218291153893356 
0.07285261232018179 
-0.3140223413747363 
0.07471415473711004 
0 
0.0759748112615982 
0.07334492304709815 
0 
-0.2749963973757988 
0.07958992865517904 
-0.5 
0.08127728008881732 
0.0787051644360809 
0.86186523734628 
0.8492658331280802 
0 
0.2827331422025652 
0.3962304569155643 
-1.904885579014688 
0.1024463023379571 
0.0808734391158053 
-1.072915955688828 
0.0794974601642628 
-1.136742912723779 
-0.2820295914215427 
-0.2806539427451649 
0.07352003195013582 
0 
-0.5 
-1 
0.08757755992352664 
-2.775557561562891e-17 
0 
0.07463229432830122 
0 
0 
-0.2136402348118537 
0.07144389267962417 
0.5000000000000006 
0 
-0.01369947752449363 
0.2848640284514261 
0.07770923903958972 
0.8607371548985071 
0.07992645830134062 
0.08182017612930954 
0.07465917272162659 
0 
0 
-1.5 
0 
0.07946829147015801 
0 
0 
0.8654309039442011 
0 
1.110223024625157e-16 
0.0822003614199345 
0 
0.08113779247799587 
0 
0.8617800632280117 
0 
0 
-0.1636865034795071 
0.09003721127582014 
-0.5 
0.2835117123335479 
-1.008215596347348 
0.07493013441821904 
-1 
0.08219006552102746 
-0.5000000000000001 
0.07276089082042354 
1.110223024625157e-16 
1 
0.01390972206918676 
1 
0 
0 
-0.5 
-0.5 
-0.1652372376035122 
0 
0 
0.08053755704528828 
-0.3938451757940891 
-5.551115123125783e-17 
0 
0 
8.326672684688674e-17 
-1.622477561774046 
0 
1.387778780781446e-17 
0.8598882070266907 
-0.3920128992796723 
-1 
0.08290452685095498 
-0.1362417884829328 
1 
0 
0 
0 
-0.2831576895780267 
0 
0 
-2.220446049250313e-16 
0 
-0.273198816271423 
0.07512769992814197 
0.6078510273328883 
0.08465304584349984 
0.4491752348887683 
0 
0.08298131112379104 
0 
0.08373973978268261 
0 
0.365476528008379 
0 
0.6767244170321954 
-0.5 
1 
0.07909847589820868 
0 
0 
-0.1646011266619553 
0 
0 
0.08085542570198856 
1 
0 
0 
0 
-0.1587451727529833 
0 
0.07885066906421363 
-0.4999999999999998 
0.3970582086529839 
-0.164151129890286 
0.07376290161234808 
0.0831963210882718 
0.0835443678050057 
0.1568351115380637 
0.0734314064891205 
-6.938893903907228e-18 
0.07455206806593587 
-0.7348425423603677 
-1.100922205914095 
0.3651305197328065 
0.07924712038296135 
1.757498171658959 
0 
0 
0.08025816785830782 
0 
0.8633041282921197 
0.3956344429955609 
0 
-0.1798108867536467 
0.2865064165311334 
0.08246936210639388 
0 
0 
-0.1610232035464859 
0.08568789318881842 
-1 
0.08792918876943316 
5.551115123125783e-17 
-1 
0.0746530362195908 
0.07870806136000555 
0.07406822148928778 
-0.1634963359619789 
0.07392819072929238 
0.07326605564151342 
-0.5 
0.2821310208074705 
0.08045381084461764 
0.07985129044936605 
-0.165491659350321 
0.08214789663403987 
-1 
0.3980843412400994 
0.08048563194161008 
0.07753824072189874 
0.07941440376347185 
-2.081668171172169e-17 
-0.5 
-0.3586077922296454 
0 
1.124744758389995 
0 
0.0746036799007832 
0 
0.07514755292536357 
0.0751138143036606 
0 
-0.1738394374281501 
-0.3735807312453491 
0.0822579584011557 
0.08178233779653932 
0.07533627460926079 
0 
0.08199782483053462 
0 
0.2944776858979431 
0.3993263223561795 
0 
1.261714921592704 
0.1137333905751395 
-0.2826113142831246 
-1.130971238001578 
6.938893903907228e-18 
-0.5 
-1.133334637665052 
-0.1650312705296344 
0 
-0.2820228731282174 
0 
0.4999999999999998 
0 
-0.303246589211624 
0 
0.400088851716852 
0 
0 
0.08114028906841564 
-1 
0 
0.4107480318546242 
0.5 
0.08383196413625968 
0 
0.3987971419461424 
-1.925146294215865 
0.08282549164279286 
0.4999999999999999 
0.1267157508413001 
0.07187420274126824 
5.334274688628682e-17 
-1.393986830532034 
0.08189527844705068 
0 
0 
0.8618274828929124 
0.08121578487612567 
0 
0.08198133046551542 
1 
0.08026878150705474 
-0.8286486446631131 
0 
0.07871270946901548 
-0.2794866141674869 
0 
0.3965160105025115 
0.07967440303000983 
-0.2809437428948645 
0.08181759469654135 
0.3983646632112264 
-0.8314283853088256 
0.08034584634616231 
0.3963787512373446 
0.8658782130427746 
0.07450950117240041 
0 
-0.2769745698596021 
-3.603172816747116 
0.08003317041616106 
0.0734253336922468 
0 
0.3681575351854785 
0 
-0.5 
0.08221114483061137 
0.07182297499231113 
-0.5 
0.1944484150704197 
0.08380487215357081 
0 
0 
-0.2816295749638621 
0 
-0.008183121496279866 
-1.130088724032706 
0.07489261471727404 
0.3981003777846152 
0.5000000000000001 
0.2858553840369165 
0.07805333051957276 
0 
-0.1677931077094786 
0.03706459140803115 
0.07271882306212089 
0.08060127938956724 
0.08092708994843142 
0.8568425616324679 
0.6767969338473261 
0.04901442209308739 
0.07470911511123157 
-0.4999999999999999 
0.07766031588826453 
0.08038556609580783 
0.05219643428886039 
0.07436222219880242 
-0.3152613091178312 
-1.136879054623217 
0.075267332586958 
0.07979928734467981 
0.2098475315647091 
0.8620095095746102 
-6.938893903907228e-18 
0.2862933203309831 
-1 
0.397963110118238 
0.07958476390554822 
0.4518299705659261 
-0.5 
-0.2947879303730374 
0.07475543391852318 
-0.2882899091584945 
0 
0.06841016932434717 
0.3954166656818384 
0.08204565861380504 
0.8310315660000119 
0 
-0.2741008999800647 
1.665334536937735e-16 
0.3986663827257579 
0.08627122865551624 
0.07474704495359596 
1.832703210038587 
0.4008775497870527 
0.3946495153150705 
0.07835966528752686 
0.3959609552278234 
0.4025940768506439 
0.08255219019010306 
0 
0 
0.2839601002334107 
0.08093545089403911 
0.8634482684518379 
0.9114926560654002 
0.08020353717518588 
0.8665942345943363 
0.07362962926718303 
0.08393023973040692 
0 
0.8653984817577662 
0.07347531854921391 
0.3957540788109029 
0.07851440967950188 
0.08185110700182777 
-0.5 
0.08636011874629999 
1 
0.07595522603369516 
-0.4999999999999995 
0.0778025192704087 
0.1039895772255617 
0.08210659252863461 
-0.2822397839509616 
-0.5 
0 
-0.01296929118027601 
0 
0.07541102591192617 
0.5963783748666088 
-0.3584611213490305 
0.3961098734795201 
-0.2769194482895782 
0.07149540797979405 
-1.108052472167589 
0.07104532138578412 
0.07676184038747048 
0.08297613347975885 
0.07907166736911903 
0.1518395664739449 
0.08280617557357201 
5.551115123125783e-17 
0.07346848524946853 
0.44858228344521 
0.07496861186836497 
0 
0.08146611985463838 
0.5 
0.09183287930955834 
0.07156509268710365 
-0.5675233610125989 
0.07995884775584398 
0.395188388437774 
-0.2820510721315173 
0.08167759407264526 
6.938893903907228e-18 
0.3973273546531368 
0 
-0.1778980367534758 
0.07353546516054202 
0.0750397084565575 
-0.1727745456004038 
0.07946016581024835 
1.387778780781446e-17 
0.08677824845845682 
0.07415674318033948 
0.08121485702283962 
0 
0.06992386419028761 
0.3808240105720953 
0.07536373813485263 
0 
0.07164798495218644 
0.3984675325631581 
0.08105473530186677 
0 
-0.8304181092726738 
0 
0 
0.07967370907209428 
-0.3486095509357269 
-0.1674708004271509 
0 
0.2156325621859398 
0.08003388109409161 
0 
1.203264301412158 
2.775557561562891e-17 
0.3604094311667762 
0.081765633656308 
0.3952073128130089 
0 
1.199264796177208 
0.08125581183589548 
0.07352547846572592 
0.07454560993720849 
0.0761441676330661 
0.08224064931320672 
0.08251493061105042 
0 
0.8643498042063491 
0.5660898941635131 
0 
0 
0.8607037622452303 
0.08275283207748477 
0.3976515131819684 
-0.9999999999999997 
0.08263334630637149 
0.08819066134267878 
0.0747266956411911 
0 
0.08083223913375781 
0.6060180398780229 
0 
0 
0.07487368087290186 
0 
0 
0.07779797943923787 
-0.1686775216962682 
0.08148007233879903 
-0.5 
0.07832531765436385 
0 
0 
2.775557561562891e-17 
0.8639065649399739 
0.3977003719646802 
0.3576095179179633 
0.07599201369905963 
0.8636459657749942 
0 
0.1798464201245005 
-3.33066907387547e-16 
0.0737274450978754 
-0.2809534059842875 
0 
0 
-0.1653371562898647 
0 
-0.04999882507661269 
0 
0 
0.07252008167096574 
0.3958610708406861 
0.08025748901909652 
0 
0.08202022876381175 
0.2879833498187544 
0.07272627903766997 
0 
-0.5 
0.4102306296178206 
-0.1659848715976314 
0.08145647337477581 
0 
0.4003951433588822 
0.08445361594731757 
0 
0.08342299282710228 
0 
-0.2700598250525155 
-1.400282692673225 
0.07970114906954123 
0.07488051427393611 
0.3961271352905971 
0.8606443169726036 
0.07561220675067742 
0.403766445647476 
0 
0.07484200744232727 
-0.1769966064146304 
-3.469446951953614e-17 
-0.1750504613575083 
0.07915434610226532 
-0.6351935419541759 
0.07320790208516487 
8.326672684688674e-17 
-5.551115123125783e-17 
0.07495456869498457 
0.3961503014912461 
-0.5000000000000001 
0.08054847056762079 
0.3974335253042445 
0.8642552189544592 
-1.147884490736189 
0 
0.08086855896543525 
0.04591486129524411 
0 
0.07607657464063998 
0.07273633903462104 
0 
0 
-0.281654738843605 
-1.58504997363736 
0.08105561049577864 
0.3958824499059194 
0.07238909366780781 
-0.2813369625960887 
0.4451423248565739 
0.3951304778380697 
0 
-0.1637052052906047 
0 
-0.5000000000000001 
0.08220217352866946 
0.0689362950985562 
0.08083307714936014 
5.551115123125783e-17 
-4.163336342344337e-17 
0.0729864040119374 
0.000480396662627359 
-0.2811104505626404 
0.8643610345829128 
0.08150168173311813 
0 
0 
0.08155480389969431 
0 
-1.105148713213697 
0 
0.07221728433247718 
0.08131005832727492 
-0.5 
-0.1683194792320847 
0 
0.3649622039183053 
0 
0 
-0.1678701920361764 
0 
0.2845576014925665 
0.3984237084416477 
-0.4999999999999999 
-1.907307661792201 
0.3955325010427199 
0.08099719925986093 
0 
-0.457331791954573 
0.07457158935439123 
0.3967699831875774 
0 
-0.2648300150279133 
-0.1787765655625652 
0 
-1 
0.07498371753590222 
0.1178645618320898 
0.08180465047640512 
0.08269157183259972 
0.4050261878659421 
0.08015740945451415 
0.07268029403462721 
0 
0.08045937109377722 
-0.280728849598998 
0 
0.07650066738080581 
0.981382205344896 
0.3977559329613705 
-0.2814085236149601 
0.4449346582587613 
-0.01049282125614683 
-1.098715259048889 
0.08186871914622167 
0.07325182503591124 
0.08555119364242728 
1.687911415691957 
0.07983224408380699 
0.07359504598320156 
0.07706667791026546 
0.08182209907484242 
0.3610361142642209 
0 
-0.01244814104471949 
0 
-1 
3.469446951953614e-17 
0.08078317628789197 
0.07912686146701758 
0.8651869108135268 
0.3970326156594239 
0 
0 
0 
-5.551115123125783e-17 
0.08105927469308591 
0.03243391586975256 
0 
0 
0.08302139064289357 
-0.749176622302847 
0.08082500172943007 
0.8608686727233098 
0 
0.1812412337598543 
0.07216587990144219 
0.07893624955864387 
1 
0.07530446716421174 
-0.1578185259642049 
0.3974011347119704 
0 
1 
0.08626236951490467 
-0.6667387959417981 
0 
0.08202823966389192 
0 
0 
0.07725907051704045 
0 
-0.3106726095117331 
-0.5 
0.0814416472968999 
0 
0.07826128414483186 
-0.1591632205429739 
-0.3931508171719513 
6.938893903907228e-18 
0.07998364198165051 
-5.551115123125783e-17 
0.001825622034583557 
0.07301687570140364 
0 
-1 
0 
-0.2815720963232384 
0.07333184575912481 
0.07376534712836928 
0 
0.08930271879883854 
0.07536263169212956 
0 
0.0750334591901064 
0.07660374816885687 
6.938893903907228e-18 
-2.775557561562891e-17 
0.07925944442139381 
0.08104816070032818 
-0.2768438475449241 
-1.135101060990344 
0.3979260462558064 
0.0808018384610269 
-1.138030329397529 
0 
0.08534421744546285 
0.0792348055976356 
0.3976251617989602 
0.3959860304297967 
0.678351285745306 
-1 
-1.040834085586084e-16 
0.07525183417293235 
0 
-0.6509711497273687 
0.080158056944704 
0.3607212382497041 
-0.5 
-0.7137691528738122 
0.08262321108094331 
0.08299906187942671 
0.4999999999999999 
0 
0 
0.08158197978321263 
0.08050213878437415 
0.08221739222424476 
0.08192688845108254 
0.08039496983810362 
6.245004513516506e-17 
0 
0 
0 
-2.220446049250313e-16 
0 
-0.2848186417408856 
-1.1051179949412 
0.07936595959661186 
-6.938893903907228e-18 
-0.281195104223646 
0.8601424361633845 
0 
0.003605515150273666 
-0.2750544046245081 
0 
-0.1706753167999668 
-0.1713354621391565 
0 
0.8625814057090745 
-2.081668171172169e-17 
-0.280897613329061 
0.08032442434219758 
-0.5 
0.08086192007503487 
0 
1.5 
0 
-0.283574843902592 
0.07436403689086377 
0 
0 
0.07884096142262985 
-0.2859432517321583 
0 
-0.5 
0.209478630926268 
0 
-0.5 
-0.1713191355551855 
0.07745761038942318 
0 
-0.2809405402314459 
0 
0 
0 
0.08004684788078475 
-0.5 
0.08218475622240357 
0.8610821500653135 
-0.04888947368985229 
0.003803218843489442 
0.08267203560915611 
0.07754958591752817 
0.3599840669167291 
0 
0 
-0.002728152154065439 
0.7577044218829967 
0.08934423386823843 
-0.5 
0 
0.08244234689730195 
0.8629647126330554 
0 
-0.459453585841238 
0.07752654275245792 
0 
-0.5 
0.09461782474771466 
-0.1630880344720697 
0.861852204262066 
0.08288181021276719 
0 
1.607133015012884 
-0.2824775910442037 
0.08459975540745247 
-0.8312768250258518 
-0.5 
0.07723374960842636 
-0.1623126374779437 
0.08125693317720067 
0 
-0.1659247419394505 
0 
0 
0 
0.07901987352500542 
0.8618323906650439 
0.4028272480824375 
-2.775557561562891e-17 
0.07455465630620314 
2.081668171172169e-17 
-0.3036232604588668 
-0.5000000000000001 
0.07974537282782652 
0.3978749909327149 
1.684601541053401 
0.0810602328445145 
0.3953817254734787 
0.08436834621604192 
-1.387778780781446e-17 
0.08242701564484706 
0.08148971633338598 
0.3649395377471323 
0.0790493844888609 
0.07758141318042003 
0.08063323418039239 
0.0812285646371855 
0.08054726362303456 
0 
0.07025733169385738 
0.0970417896857636 
0.07470047306537583 
0.0847585795274786 
-1.135486031316097 
-0.2805280391853329 
0.3937012348188525 
0 
0 
0.07629123805828632 
-0.420979751756105 
-8.326672684688674e-17 
2.775557561562891e-17 
-0.2815170067311725 
-5.551115123125783e-17 
0.08771155294683207 
0.08030287244013973 
-1 
0 
-2.42861286636753e-17 
0 
0.3980557930716263 
0.3963269511211407 
-0.175480682827083 
0.3899335775026256 
0.2093382807173107 
-0.1729123750147397 
0.4038756688718711 
-0.176976294679058 
0.07558403767043718 
0.003332700581401365 
0.08037198879085894 
-0.5 
-2.831708920729018 
-0.5 
0 
0 
0.08120621001902983 
0.08003913625731918 
0 
0.3974616299925192 
0 
0.07612059434543024 
1.00816118495548 
0 
0 
0 
-0.1612769410066197 
-0.7682834166383883 
-0.1637764471120814 
0 
0.3966966835271454 
-0.1740236297368407 
0 
0 
0 
0.6764535140109207 
0.08199348816305434 
-2.145925867354198 
0.4326470349059265 
0.3587259817550319 
-1.387778780781446e-17 
0.08845742335496568 
0 
0.07272692517838267 
-1.5 
0.0007581328194867509 
0.07889460503687883 
0.3957361622542556 
0.5 
0.08074723571687586 
0.1961804456880427 
0 
0.07239780933387459 
0.07579118789198236 
-0.212168112565507 
0.06711785006826551 
0.00127188960738959 
0.07459261082575544 
0.07520180441462257 
0.07976558182067277 
2.775557561562891e-17 
-0.4999999999999999 
0.2622979476639417 
0.08061379202551833 
0.08602464422922959 
0.07664345965650002 
0.08123720075049806 
0 
-0.5000000000000003 
0.0200172373224641 
0.2386874750275334 
3.469446951953614e-18 
0.0808406796680073 
-0.1620662328243277 
0.08119581890167139 
0.8649483657779256 
-0.5 
-1.387778780781446e-17 
0.8615061510682116 
0.1088158684366983 
0.07466962764013671 
0.08524256159756677 
0 
1 
0.0748285774973861 
0 
-2.999999999999999 
0.08031531281960987 
-6.938893903907228e-17 
-0.1036371128333592 
-0.5 
1.942890293094024e-16 
0.08249360344609247 
0.08061769363402399 
-0.2147362948925507 
-0.1668064806116379 
-0.5 
0.08167866221700512 
-0.01428365492954618 
0.677830309378411 
0.07996108242920355 
0.7279071677012384 
0.1190239784935468 
-0.164918283749589 
0 
0.4006975546814494 
0.8617817668313756 
0.08000467348614242 
0 
0.07302320198874646 
-0.5 
0.07535095780725394 
0.08032205842921736 
0.3959137523202481 
-0.2819837528079116 
0.8624087424661473 
0 
0.08200752309313523 
-0.4999999999999999 
0 
0.8642931250571068 
0 
0.08081617898177443 
0 
0 
0.08065217375112457 
-0.5 
0.03546807141262676 
0.08225865283462447 
0.08253575111238767 
0.07578035453476209 
0.3986790652585053 
0.08175241021042659 
0.08080573579655191 
-0.5 
0 
0.0803135213758345 
0.4449492571220018 
-8.326672684688674e-17 
0.3974400945354106 
0.3967340127077243 
0 
-0.5716622473481738 
0 
-3.469446951953614e-18 
0 
0.07615754696731264 
0.08031534335151089 
0 
0.07606703544126563 
0.07439064182849917 
-0.9999999999999999 
-0.8294172643594977 
0.3976829580840988 
0.07577790805685129 
0.3974989018683985 
0.07323043571864299 
-0.2853795167827115 
0.07319186210301928 
-0.7135443614412988 
-0.2971430314467912 
0.2621668760354637 
0.08178838830956517 
0.08112337939154632 
0.07183368097976214 
0.3971273293557793 
0.08138865552748813 
0.07282632419874469 
0.1055653135957182 
4.336808689942018e-19 
0.3958555036682683 
0.0769235007690918 
-2.081668171172169e-17 
0.07368484895084476 
0.07057687079420834 
0.3623034431725856 
0.399100646958784 
0 
0.07218120919088111 
-0.4999999999999999 
0 
0 
0.0751509055684666 
-0.173055066761312 
0.08035154355138714 
-0.4999999999999999 
0.08182559424728597 
0.01981773200844357 
0.0005342706888868953 
0.09471028941604304 
0.09589426272063106 
0.07987178044712076 
0.08141600808876991 
-0.5000000000000002 
0.07151028823424795 
-0.5000000000000001 
0.3940531817535482 
0.396392010675775 
0.3973096656304099 
0.3955446550926304 
0.07098464898511342 
0.07554380976358117 
0.4019034162956918 
0.07811133172689613 
0 
0.07289376716939099 
-0.5 
0 
-0.2838779802950631 
0 
0.3958526948278545 
0 
-0.3363470621303013 
0.07560738341594639 
-0.5 
0.3400467573158313 
0.08162440672803792 
0 
0.07786733648346755 
0 
0.07446165082346656 
0.07613215784366285 
0 
0 
0 
0.3405239441347781 
0.08007722676882115 
0 
0 
0.08183856210403415 
0.08269906770681698 
0 
0.3948932413820628 
0.8479431542781405 
0 
0.08233786518762619 
0 
-0.1750054824080395 
-2.738827438512271 
0 
0.08447858670194919 
0 
0.5869367566841248 
0 
0 
0 
0.3950861254134667 
0.07647132352449934 
0.07809577370724835 
0 
0.0887562015731756 
0 
0 
0.03690476672622434 
0.3950413433612401 
0.08410833929679118 
-0.5 
0 
-0.1632206535768902 
0.1384846687981332 
0 
-0.07289497298440584 
-0.2374499012733008 
-0.5 
-0.9999999999999999 
0.08004258616283214 
1.261416677935233 
-0.1644072998613265 
1 
0 
0 
0.0749573777472643 
0.8805144585326297 
0.4901017931369619 
0 
0 
-0.1663948163501814 
-0.2824581319146219 
-0.1632364313507461 
0 
0.07306540780926193 
0 
-0.5 
0.08435979873824317 
0.08455625940499094 
0.3974202036733678 
5.551115123125783e-17 
0.07205989642582321 
0.8615379556548213 
0 
0.3955504207806705 
0 
0 
-2.833459126000544 
0.2827434599594494 
-0.4999999999999999 
1.5 
0.3002917777954113 
0.07950507994751643 
-0.2348807328240656 
0.07607144351139107 
0.08187750982261929 
0.07195971532167612 
0 
0.07931419791411083 
-0.5000000000000001 
0 
0.07964673776654241 
-1.601771698707937 
-0.2755661860928391 
0.3967133625440432 
0.08033533444831904 
0 
0.07943994235089911 
0.07477702587857565 
0 
0.07372378917649504 
-0.5 
0.07539105841893506 
0.08214144656031956 
0.861268319968669 
0.0630480281929218 
0 
0.07822372585949793 
0.07761353993487777 
-0.5 
0 
0.07696166819130615 
0 
0.000255101542998834 
-1 
0 
0.07104469022498823 
0 
0.08123669424422514 
0.07149722758499767 
0.001844759791893687 
0 
0 
0.08347405026460057 
0.07011072444332336 
0 
0.4372668438877649 
0.8662088793879446 
0 
0.1374356245580131 
2.775557561562891e-17 
0 
0.3947623680395482 
0.08238274416986474 
-1.098787204027992 
0 
-0.5 
0.4174028345204041 
-0.2735562852430337 
0 
0 
-0.09849618406878002 
0.07590246950605191 
0.25078681498481 
0.3967315179557231 
-0.5 
0.08116250198513834 
0.07483375872834189 
0.08322640059337859 
0.07383262996716253 
0 
0.07793172807875787 
0 
-0.1080135772706355 
0.07944512973749007 
0.3967421944916432 
0.08117495600255761 
0 
-0.2723592243880061 
0.08167106432049832 
0.07744450369826208 
0 
0.3977750510361804 
0.08228742753014513 
0.08802610326532734 
0.3900642913103951 
0.2873556263411052 
-1.5 
-1 
0.08295176366098658 
-0.5 
-0.570355443278915 
0.3942808776298016 
0.0817028860456394 
0.07530997153675036 
0 
0.07810798883835302 
0 
0.07405943326559879 
0.08752275806198345 
-0.174594706542327 
0.07864486428546703 
-1.59836790179429 
-0.5 
0 
0.3944159980305196 
0.3977604743078142 
0 
0 
-0.1665006274564833 
0 
-0.1638871365676299 
0.07830155262291116 
-0.458338984860843 
0.08047923352983202 
0 
0 
0.5 
-0.2811756781753745 
0 
0.08770743985063015 
1.688554149858986 
-1 
-0.5 
0.08267097957798547 
0.3969464339239032 
0 
0.07466004352670945 
0.397314655722378 
0.07445791465670178 
0 
0.03355639126221101 
-0.5577195837470694 
0 
0.07600572144023585 
-0.5 
-0.1699997268267234 
-0.164271255755665 
0.8649102500301293 
2.775557561562891e-17 
-0.1609788359250267 
0.07743202888065132 
0.2604529671690054 
0.07419522632431892 
0.1607462193596411 
0.07456618259341539 
-1.5 
0.08255711812074498 
0 
0.07972766301820382 
-0.1706754269479111 
-3.601946203784272 
0.8600220831902381 
-0.1344042920481597 
-0.5 
-0.2819540723990904 
0 
0.08041772728542129 
0 
-1.5 
0.3951749345734357 
0.07997655448386 
0.0753818046620371 
0.08198021104552661 
0.03284245315992806 
0.07503053217816767 
0 
-0.2010157812039852 
-0.5 
0 
0.08011717439781593 
0.862822185692921 
0 
0.08068727389558855 
-0.5 
0 
0.07594932487643238 
-0.7378982083584777 
0.3962504768195899 
0.3984799428645838 
0.08635432015027963 
0.3966566980042889 
-5.551115123125783e-17 
0.07844089627496351 
0.0804357060918279 
0.07947085577820273 
0.08025609897832342 
0.06872745933273944 
0.08194660239634195 
0.08163708955150407 
0.07493550494360658 
0.07834144390335746 
0.07616793810031422 
0.07105936509953259 
0.07890731202028269 
0.07937512527628712 
0.07818059648587936 
0.08311365822994823 
0 
0.3987880852706802 
0 
-2.499999999999999 
0.08063961803761784 
0.08968725161876571 
0.0731015470895721 
-0.7376301694911727 
0 
0 
0.3951117807265874 
0.07761729122530875 
-0.2813754742075369 
0.07903600431262289 
0.07267169520736054 
0 
0 
-1 
0.07785354059133709 
0 
0 
0.08212614817288774 
0.403553379075438 
0 
0.4288373789286682 
-0.5 
0.07967624992142112 
0.2099801842377975 
-0.2840631641249222 
0.3331663584172519 
-0.1619097155757943 
0.3974022117358285 
0.8553642300479126 
0.05715290167176355 
-0.5 
-0.007947457261102575 
0 
0.07652344500227559 
0.07911150432040411 
0 
0 
0.08010748046831041 
0.07939316447184702 
0 
0 
0 
0 
0.08148482266730153 
-0.2149773046007428 
0.05712761354458545 
0 
0.8626261030195953 
0 
0.07547632723397492 
0.07489593299276785 
0 
0.3954651213654865 
0 
-0.3131364827185027 
0 
0.08627268677816757 
0.07296956054315108 
0.4999999999999999 
0 
0.003498203069707877 
0.07587338693685863 
0.2698227806598769 
0.08163868141192795 
1.387778780781446e-17 
1.387778780781446e-17 
-1.13436092941591 
0 
-0.5 
0.08052726319801828 
0.397933563014133 
-0.4999999999999998 
1 
0.07523790868397458 
0 
-0.1752045631708816 
0 
0.08278557772594849 
0.3940598831429666 
0 
-0.1586237766733919 
0.07601282425012167 
0 
0 
0 
0.08139067021053759 
0 
0 
0 
0 
0 
0 
-0.1671502308306832 
-0.2807543110258702 
0 
-4.77048955893622e-18 
-0.5 
1.687704398858473 
0.08236805613868141 
0.08791113016789043 
0.5360431948121249 
0.07227563277350553 
0.2833430068723309 
0.001565272161006964 
0 
0 
0.08127758908565491 
0.07594236112127693 
0.08058599481965484 
0.3970638831188047 
0.3635101081181408 
0.07793974609654974 
-0.5 
0.0826297798869305 
-0.5 
0.07294209574210063 
-0.2563693791656536 
0.08194465282741964 
0 
0.07153398830961868 
0.396185820352984 
0 
0 
-2.775557561562891e-17 
0.8633163059918519 
0 
0.08125834870636442 
0.3675336393715853 
0.07499300368368232 
-1 
0 
0.3775730011930444 
0.07538331133227445 
-1.144536546049798 
0 
-0.2122061516068993 
-0.2901992279490146 
0.8685949468919401 
0 
0.07658210797707757 
0.02076769803541088 
-0.798561372920632 
-0.7789718037741069 
0 
0 
-0.1634847711976192 
0.08267423647861671 
0.398782045612722 
0 
0.3965170164588739 
0 
-0.2734820464391807 
0.5 
0 
0.08133440551742774 
0 
0.07961153117471458 
-0.163294410119537 
-0.5000000000000001 
0.08089782106875998 
0.07186586078670291 
0.07825440736705946 
0.08114820461107283 
0 
0.3971106310353032 
0 
-0.1631602867531697 
0 
0.0750225167388424 
0.3939879198851223 
0.8662223758205214 
0 
-0.5 
0.0810671389446256 
-0.5000000000000001 
-0.2725266155094171 
0.6774117560929558 
0.5 
0 
0.08019779331420225 
0.0727887380386195 
0 
0.08173269278681876 
0.07131151464914842 
0.08688110972393662 
0.08151676543404443 
0.07729282366647082 
-0.5 
0 
0.07274312554495022 
-0.5 
0.08379920992648263 
0.0741131402830931 
0.07438238121095461 
0.08092869104169736 
0 
0.07003410789694171 
0.8619111864389362 
8.326672684688674e-17 
0.5365954551261718 
0.08104365468926053 
2.775557561562891e-17 
0.07507978751470652 
0 
0 
0.07809818204777276 
0.07471598223282289 
0 
0.08383076034532015 
0.002068608640358942 
0 
0.07545434835030518 
-0.2792827940967081 
0.07551007947802274 
0 
0 
0.8640166768336546 
0.3870776858570506 
0 
0.08048658306261948 
0 
0.3977720864774378 
-0.5 
-0.5 
0.07979269535541085 
0.1950045687081296 
0.2699486074842529 
0 
0.03353584030337273 
0 
-0.3831781138037479 
-0.2811502540876004 
0.07435030660979178 
0 
0 
0.07150543855511507 
0 
0.07427423578306644 
0.5030734488065977 
0 
0.3942509427068043 
0.07384546174275168 
0 
-0.2818681927285016 
0 
0.08021062853770605 
0 
-0.1744684947216315 
0 
0 
0 
0 
-0.2781976940026542 
0.8601852205000293 
-0.5 
-0.5 
-0.5 
2.081668171172169e-17 
0 
-3.602546522976538 
-0.1645401791605511 
0 
-0.5 
8.326672684688674e-17 
0.5 
0.07782706519128191 
0.07488680160550122 
-0.2146034395103034 
0.08219994858759901 
0.07517211410762016 
-0.278471643474733 
0 
0.07852937755318341 
0.07464361483776842 
-3.600496959617968 
0.07702097849946493 
0 
0.07217163621979952 
0.07611085188943675 
0 
-0.5 
-0.5 
-0.006477545146530456 
0.07235392181115251 
-0.2800190447071458 
0.07535190489418971 
0.06416836380580188 
-3.469446951953614e-18 
1 
0.1780135419091953 
0 
0.4038007006175325 
0.07407791802403491 
0.284445758290752 
0.3180328981413589 
0.07441212369552756 
-0.5 
-1.5 
-0.6740960034844768 
0.3981064730732178 
0.07512891274017733 
-0.830200412402356 
-0.5966063937563395 
0 
0.3953115026300013 
0 
-0.3111680118882028 
-0.5 
0 
-0.4999999999999999 
-0.1725283978849134 
0 
1 
0 
0 
0.08684418797944064 
-0.2698319135371555 
0 
0 
0 
0.08234818765283387 
0 
0 
0.06623158171468296 
0.0708800396054797 
0 
0 
0.07928176868038814 
0 
0.3946272709972973 
0 
-0.2832931770243605 
-0.5 
0.1945052944757951 
1 
-0.1757989601932465 
0.08253971520777748 
-0.1724214086914943 
0 
0.08043370655134863 
0.07165278234523402 
0 
0 
-1 
-0.7812930973427707 
-1 
0.4449809406060457 
0.2613126844413453 
0 
-0.1632039623927914 
0 
0 
0.3642055649578266 
-0.8308097384281999 
-0.165097114317086 
1 
0.08486518481141614 
0.865537532158815 
0 
0.3969248079498254 
0 
-0.5 
0 
-0.1842891106684211 
0.1781859020163582 
-0.1737768814527479 
-0.1702508232222085 
0 
0.08599663712744049 
0 
0 
0.6825983171588335 
0 
0.08131711210083092 
0 
0 
-0.1661495373379644 
-0.1807973635443758 
-0.3078554513959234 
0 
0.07924712219937448 
0.8600277167628712 
0.396334764823196 
0 
0.07602689335102682 
-0.2963871917794438 
0 
0.07532305137201889 
0.07866911195077 
0 
0 
0 
-0.4999999999999999 
0.0819434680870163 
0.07301331240731464 
0 
0.395643994239493 
0.319010267095148 
0.08151756920410314 
0.4322197262149791 
0 
0.07833617567994244 
-0.4999999999999999 
1.225302747299019 
-0.3814587449575136 
0 
0.3947196350590559 
0.3963099094094666 
0 
0 
0.07931489453318907 
5.551115123125783e-17 
-0.8333494231779929 
0 
1.387778780781446e-17 
0 
0.399354131788392 
-0.2837687988187401 
0.08408163942583366 
0.08573252206671265 
0 
-0.7998769413325768 
-1 
0 
0.04539965455247279 
0.5 
0 
0.0762259783899414 
0.5 
-0.169715307831782 
-0.1707489558859824 
0.07788440976907024 
0 
0.07926026963455385 
-0.1696944988695919 
0.07592035680899786 
-0.1641788654524846 
0 
0.08149008225796094 
0.08177475386329514 
0 
0.5190283930820589 
0 
0.0746005203336409 
0.3972306910250244 
0 
-0.1764706547046203 
-0.5000000000000006 
0.8598564283512656 
0.2827576588149997 
0.08241795861855195 
0 
0.08172989697897079 
3.5 
0.08082034609108601 
0.07375697777024992 
-0.1685707071117591 
-0.5 
0.7952747733174892 
0.3950884977921279 
0.3951930110852189 
0.2542756634915508 
0 
0.2668826389717508 
0.2860301170028743 
-0.1768102633046678 
0.4999999999999999 
0 
0.3966609524496412 
0.08428578935371375 
0 
0.07314036703296756 
0.2832464082986338 
0.2704189642610396 
0 
0 
0.02405483423860519 
0 
-1.148067512631143 
1 
-1 
0 
0.08113100180244801 
0.3962505344080487 
0.2401785288879943 
0 
0.09162041054515746 
0.08081516102551518 
0.07887526554260088 
0 
0 
0 
0 
0.08250906388728454 
0 
0 
-0.5 
0.07807287822435677 
-0.5 
0.076473353613505 
0 
0 
-0.8165165639415236 
0.07525068338503083 
0.08228213570756603 
0 
0 
-0.5 
1 
0.08470816616691057 
-0.0138495979131318 
0 
0 
0.01282833091786773 
2.775557561562891e-17 
0.0734489201304135 
0.0831502736312702 
0 
0 
0.07454333867727288 
0 
-0.5 
0.08032039758073836 
0 
-0.5 
0.6788141124503385 
-0.1778632560875666 
0.07282482686998565 
0.08432145920070251 
0 
0.07356053523538879 
0 
0 
0 
0 
-0.1631467071935573 
-0.1729656358390255 
0.07465091201220646 
0.8605171462088257 
0.07465111490138035 
0.610628594050003 
-0.5 
0.03764704804992002 
0 
0 
-0.281500276162588 
0.3976400671821333 
0.07418811881894917 
-2.220446049250313e-16 
-0.5 
-0.4999999999999998 
0.08120449578029612 
-0.2837482313001328 
-0.83074019296489 
0.08124807726549926 
0 
0 
0 
0.318840605713864 
